~o
<STREAMINFO> 1 39
<VECSIZE> 39<NULLD><MELSPEC_D_A_Z_0><DIAGC>
~h "shot"
<BEGINHMM>
<NUMSTATES> 3
<STATE> 2
<NUMMIXES> 256
<MIXTURE> 1 1.961732e-04
<MEAN> 39
 2.141530e+05 1.754349e+05 3.404956e+05 3.341507e+05 6.141851e+05 8.782366e+05 2.057482e+06 2.388370e+06 2.932746e+06 4.337252e+06 5.812935e+06 5.264859e+06 1.034922e+07 2.186586e+05 3.811622e+05 7.725881e+05 9.323037e+05 1.262728e+06 2.024393e+06 3.546868e+06 5.223589e+06 6.188564e+06 7.903068e+06 8.813575e+06 6.283334e+06 1.777955e+07 -4.174218e+04 -2.612411e+04 -2.118313e+04 6.088047e+02 -3.840029e+04 -8.440825e+04 -2.990013e+05 -2.572326e+05 -2.975395e+05 -5.692029e+05 -1.105647e+06 -1.061073e+06 -1.551730e+06
<VARIANCE> 39
 1.320020e+10 8.881060e+09 7.676525e+10 1.398352e+11 2.370204e+11 1.172786e+11 7.794387e+11 8.837440e+11 1.490185e+12 1.865475e+12 8.521562e+12 4.958072e+12 1.619466e+13 4.142898e+09 1.705442e+09 1.700053e+10 8.835890e+10 1.291989e+10 1.735251e+11 1.110414e+12 7.571172e+11 3.866044e+11 1.867574e+12 5.589139e+12 6.490372e+12 6.179228e+12 7.452145e+08 1.451988e+09 3.077077e+09 9.019693e+09 6.661106e+09 6.857542e+09 1.687050e+10 4.561266e+10 4.778343e+10 5.563328e+10 1.406353e+11 5.739052e+10 2.921605e+11
<GCONST> 1.066376e+03
<MIXTURE> 2 1.958922e-03
<MEAN> 39
 6.966263e+03 9.997209e+04 3.011563e+05 4.946434e+05 7.168417e+05 8.472509e+05 1.181887e+06 1.749781e+06 1.967815e+06 1.631580e+06 1.096235e+06 3.454533e+05 4.261941e+06 1.017244e+03 1.743320e+04 5.536177e+04 1.474460e+05 1.990198e+05 2.696658e+05 4.399668e+05 6.101768e+05 4.690078e+05 2.924484e+05 1.943920e+05 7.539164e+04 1.131390e+06 6.284580e+02 4.347495e+03 2.121970e+04 3.850521e+04 4.723966e+04 4.333583e+04 5.575952e+04 6.295289e+04 5.569231e+04 5.387039e+04 5.448785e+04 2.652313e+04 1.896568e+05
<VARIANCE> 39
 2.546669e+07 3.397251e+09 1.910446e+10 4.899341e+10 6.567782e+10 1.018331e+11 1.466319e+11 3.437033e+11 2.634617e+11 2.392181e+11 1.696602e+11 2.581637e+10 1.134561e+12 1.824924e+06 1.653923e+08 1.198184e+09 4.813062e+09 6.533643e+09 6.680441e+09 2.273305e+10 5.762480e+10 6.682996e+10 4.583947e+10 1.977000e+10 4.370835e+09 1.586712e+11 1.036637e+06 5.995218e+07 3.599524e+08 1.141144e+09 1.795049e+09 2.618910e+09 4.599285e+09 1.148018e+10 1.105611e+10 5.189288e+09 4.028392e+09 1.907782e+09 4.256624e+10
<GCONST> 9.573168e+02
<MIXTURE> 3 1.695684e-03
<MEAN> 39
 5.406958e+03 7.809237e+04 3.000555e+05 4.048495e+05 4.776732e+05 4.365935e+05 5.615388e+05 8.546548e+05 1.295258e+06 1.283046e+06 8.671914e+05 2.609744e+05 2.786431e+06 -1.254089e+03 -1.225124e+04 -3.169775e+04 1.215159e+03 3.623304e+04 7.644463e+04 1.898774e+05 3.206014e+05 2.701411e+05 1.666806e+05 1.216895e+05 4.940012e+04 4.846234e+05 1.444545e+03 1.017822e+04 4.523257e+04 1.084416e+05 1.670864e+05 1.947441e+05 3.322183e+05 5.041814e+05 4.969245e+05 4.148869e+05 3.297118e+05 1.765951e+05 1.135602e+06
<VARIANCE> 39
 1.396237e+07 1.862053e+09 3.055808e+10 2.324138e+10 2.439174e+10 5.402550e+09 1.033811e+10 2.266889e+10 7.753297e+10 8.231737e+10 3.584447e+10 6.092742e+09 2.121152e+11 9.701841e+05 1.757107e+08 1.344931e+09 3.177837e+09 9.910057e+09 1.753968e+10 7.285380e+10 2.224770e+11 1.674039e+11 1.653268e+11 1.168567e+11 2.069317e+10 7.381347e+11 1.943088e+06 1.105714e+08 4.164323e+08 1.422451e+09 4.366268e+09 5.271011e+09 1.673863e+10 4.817361e+10 5.258691e+10 3.582140e+10 2.418173e+10 1.281009e+10 1.901024e+11
<GCONST> 9.642770e+02
<MIXTURE> 4 5.688770e-04
<MEAN> 39
 6.360896e+03 7.243027e+04 2.167481e+05 2.871122e+05 4.113611e+05 5.064717e+05 8.946677e+05 2.113726e+06 4.110895e+06 4.686530e+06 4.578972e+06 2.587488e+06 8.357970e+06 1.027025e+03 3.050487e+04 1.345159e+05 3.252809e+05 5.285749e+05 4.739371e+05 8.464792e+05 1.170272e+06 1.257171e+06 1.181447e+06 7.653189e+05 3.635667e+05 2.889621e+06 1.408591e+04 5.798679e+04 1.300297e+05 2.262503e+05 3.041036e+05 2.922173e+05 4.792099e+05 6.860059e+05 8.252130e+05 7.008338e+05 6.987535e+05 6.244755e+05 2.057230e+06
<VARIANCE> 39
 1.319964e+07 1.758773e+09 1.274076e+10 1.980182e+10 3.421191e+10 8.951223e+10 5.104119e+10 1.668382e+11 2.619756e+11 4.561617e+11 4.333795e+11 4.423436e+11 7.693084e+11 1.758596e+07 2.844962e+08 2.207987e+09 3.172021e+10 7.276767e+10 2.128858e+10 1.285722e+11 2.127954e+11 3.901022e+11 1.954639e+11 1.741814e+11 1.745164e+11 8.221061e+11 1.826575e+07 8.202206e+08 1.573347e+09 6.313820e+09 1.722629e+10 1.903041e+10 4.914117e+10 1.211326e+11 2.040943e+11 1.155986e+11 1.376710e+11 8.683672e+10 8.302458e+11
<GCONST> 1.012777e+03
<MIXTURE> 5 1.710332e-03
<MEAN> 39
 2.378740e+04 1.478182e+05 4.135019e+05 6.572220e+05 8.217870e+05 9.748358e+05 1.004456e+06 1.109200e+06 9.557232e+05 3.736791e+05 -2.308789e+04 -1.248041e+05 2.585893e+06 2.133068e+03 1.670261e+04 5.771336e+04 8.820408e+04 9.878166e+04 1.103756e+05 1.078122e+05 1.170103e+05 8.685632e+04 4.324490e+04 1.558730e+04 2.667243e+03 3.049977e+05 5.248188e+02 1.102724e+03 5.762115e+03 1.564574e+04 7.396663e+03 5.911326e+03 5.720365e+03 9.590368e+03 2.569118e+04 1.216185e+04 3.024893e+03 7.653240e+02 3.808848e+04
<VARIANCE> 39
 3.501297e+08 2.454032e+09 2.345713e+10 3.997905e+10 4.229752e+10 6.244491e+10 4.036640e+10 5.712740e+10 9.138287e+10 5.927032e+10 3.039270e+10 3.209674e+09 2.161342e+11 9.534594e+06 3.194018e+08 3.198022e+09 3.928483e+09 5.277978e+09 3.191777e+09 2.739437e+09 6.879332e+09 2.000833e+10 4.965049e+09 6.241159e+08 7.744432e+06 2.603905e+10 2.162384e+06 6.284734e+07 5.749606e+08 5.174393e+08 5.083330e+08 7.735098e+08 6.346632e+08 1.041085e+09 1.860981e+09 4.355115e+08 9.707682e+07 3.624315e+06 3.830110e+09
<GCONST> 9.074918e+02
<MIXTURE> 6 2.918777e-03
<MEAN> 39
 1.444404e+04 1.396850e+05 4.083241e+05 5.732452e+05 5.989534e+05 6.603269e+05 7.432409e+05 1.290328e+06 2.147495e+06 2.039732e+06 1.338471e+06 4.143905e+05 4.232978e+06 2.731175e+03 4.747992e+03 -1.851388e+04 -4.434907e+03 8.013127e+02 -7.442716e+03 6.909932e+03 4.016073e+04 -2.532513e+04 -2.135644e+05 -1.846529e+05 -6.991469e+04 -1.912633e+05 1.056065e+03 2.356647e+03 2.550907e+04 3.669136e+04 6.801289e+04 1.130880e+05 1.651438e+05 2.102959e+05 1.678074e+05 1.335691e+05 1.231068e+05 7.680688e+04 4.586441e+05
<VARIANCE> 39
 2.338653e+08 5.351124e+09 4.334448e+10 2.739205e+10 2.030929e+10 3.617112e+10 3.483177e+10 6.780400e+10 1.544039e+11 1.978067e+11 1.236828e+11 3.583017e+10 5.427827e+11 7.221166e+07 3.127536e+08 9.686641e+08 2.104095e+09 1.357266e+09 4.208833e+09 1.086168e+10 1.818468e+10 2.325239e+10 6.865361e+09 7.047879e+09 1.421185e+09 3.418862e+10 1.408295e+07 1.893172e+08 7.672044e+08 1.196391e+09 1.571005e+09 2.341658e+09 4.986037e+09 1.409682e+10 9.134364e+09 3.553215e+09 3.030047e+09 3.302110e+09 2.567971e+10
<GCONST> 9.500051e+02
<MIXTURE> 7 4.892433e-04
<MEAN> 39
 5.213724e+05 7.189999e+05 1.581515e+06 1.914876e+06 3.525566e+06 5.024054e+06 8.075570e+06 1.244582e+07 2.189964e+07 2.635325e+07 3.148677e+07 3.151633e+07 5.922203e+07 9.764509e+04 2.204325e+05 6.690708e+05 8.036028e+05 1.146635e+06 1.336080e+06 1.704962e+06 2.836706e+06 4.449092e+06 5.321808e+06 5.256649e+06 4.469408e+06 1.155836e+07 -6.951066e+04 -1.022742e+05 -2.404677e+05 -2.658036e+05 -4.588736e+05 -6.496838e+05 -1.061294e+06 -1.690351e+06 -2.911788e+06 -3.443554e+06 -4.117284e+06 -4.284358e+06 -7.877250e+06
<VARIANCE> 39
 1.402702e+11 3.254677e+10 7.520544e+11 1.624013e+12 1.319042e+12 3.163066e+12 1.026056e+13 7.559065e+12 3.316369e+13 3.591357e+13 1.039166e+14 7.922643e+13 1.681054e+14 7.192370e+09 3.136831e+09 2.349534e+10 2.792690e+10 5.909451e+10 4.970154e+10 2.975536e+11 6.119182e+11 5.559330e+11 7.008978e+11 3.181505e+11 1.751233e+12 9.423516e+11 2.010376e+09 3.534357e+08 1.173655e+10 2.869606e+10 1.743457e+10 4.192125e+10 1.416940e+11 8.678146e+10 6.766200e+11 4.255627e+11 8.024001e+11 1.134223e+12 1.755998e+12
<GCONST> 1.109402e+03
<MIXTURE> 8 5.829685e-04
<MEAN> 39
 7.718536e+04 2.172020e+05 4.508680e+05 6.607864e+05 1.001292e+06 1.512007e+06 1.881745e+06 2.974998e+06 4.238540e+06 4.291784e+06 3.715852e+06 1.331787e+06 9.126002e+06 -1.877109e+04 -3.494264e+04 -5.853324e+04 -1.086272e+05 -1.209517e+05 -1.208648e+05 -1.822065e+05 -3.327884e+05 -4.371408e+05 -5.067543e+05 -5.462014e+05 -1.749380e+05 -1.078886e+06 3.402325e+04 5.210038e+04 1.387169e+05 1.281613e+05 1.919915e+05 2.983291e+05 4.831967e+05 8.155949e+05 1.148339e+06 1.301536e+06 1.467378e+06 1.422595e+06 3.054498e+06
<VARIANCE> 39
 3.742130e+09 2.354065e+10 4.072355e+10 9.998636e+10 1.494901e+11 5.213022e+11 3.512799e+11 5.754818e+11 2.151969e+12 1.610111e+12 1.969865e+12 5.863437e+11 2.742132e+12 2.411389e+08 8.468312e+08 2.322738e+09 8.616455e+09 1.290580e+10 2.043001e+10 8.511175e+10 1.669738e+11 1.747268e+11 1.255691e+11 1.758149e+11 8.667369e+10 4.926845e+11 3.979081e+08 2.342999e+08 3.909110e+09 3.091409e+09 7.033577e+09 2.156235e+10 4.495053e+10 6.121379e+10 1.889423e+11 1.200469e+11 1.648130e+11 3.208771e+11 6.169252e+11
<GCONST> 1.035852e+03
<MIXTURE> 9 1.128775e-02
<MEAN> 39
 6.583144e+03 9.554855e+04 3.094873e+05 4.134025e+05 4.028850e+05 3.774261e+05 3.318975e+05 3.119957e+05 2.087356e+05 2.484463e+04 -5.988863e+04 -6.489133e+04 9.626601e+05 6.108629e+02 6.922717e+03 2.130907e+04 2.580358e+04 1.595265e+04 1.160458e+04 8.447062e+03 4.305374e+03 2.952190e+03 -8.245613e+02 -4.203824e+02 1.727586e+03 4.016785e+04 1.377716e+02 2.201863e+03 7.621940e+03 5.799791e+03 6.293304e+03 5.003329e+03 6.357147e+03 4.500403e+03 2.954070e+03 1.279873e+03 8.063691e+02 4.578379e+01 1.755535e+04
<VARIANCE> 39
 4.209468e+07 2.185619e+09 1.042215e+10 1.567000e+10 9.463853e+09 8.785779e+09 8.828557e+09 1.312367e+10 1.585332e+10 6.892434e+09 2.816596e+09 1.597668e+09 5.915892e+10 2.264776e+06 2.037539e+08 1.409348e+09 1.253181e+09 7.067312e+08 5.036964e+08 3.875934e+08 5.260121e+08 3.334532e+08 1.078730e+08 2.018704e+07 8.263415e+06 2.164091e+09 3.424214e+05 4.344918e+07 2.817432e+08 2.538210e+08 1.541128e+08 1.081137e+08 9.628778e+07 1.077615e+08 7.163967e+07 1.420166e+07 3.020491e+06 7.121481e+05 5.655039e+08
<GCONST> 8.381317e+02
<MIXTURE> 10 1.771794e-03
<MEAN> 39
 3.778475e+03 6.433045e+04 2.219833e+05 3.436224e+05 4.429589e+05 5.322265e+05 6.607451e+05 9.665731e+05 1.249354e+06 1.066043e+06 6.399552e+05 1.861067e+05 2.603676e+06 1.426067e+03 1.850702e+04 2.264598e+04 4.376691e+04 5.456760e+04 7.181499e+04 1.013488e+05 1.343650e+05 9.021925e+04 2.441120e+04 2.333167e+03 -3.762578e+03 2.292900e+05 1.936895e+03 1.756425e+04 3.766242e+04 5.181201e+04 6.242182e+04 5.897308e+04 8.257603e+04 1.230227e+05 1.151241e+05 8.695098e+04 6.849005e+04 2.959472e+04 3.005234e+05
<VARIANCE> 39
 1.070587e+07 1.579118e+09 1.378109e+10 1.523010e+10 9.428760e+09 1.127339e+10 2.273319e+10 3.036757e+10 6.655030e+10 6.031367e+10 4.382791e+10 7.748383e+09 1.526887e+11 8.243236e+06 7.350121e+08 1.104047e+09 1.543796e+09 2.423208e+09 2.767063e+09 7.619527e+09 1.361558e+10 9.035752e+09 4.682792e+09 2.117152e+09 3.814894e+08 2.378760e+10 1.711402e+06 1.115684e+08 4.582529e+08 4.963802e+08 6.730851e+08 6.701605e+08 9.823596e+08 1.447392e+09 2.502742e+09 1.782600e+09 1.226344e+09 4.970481e+08 6.066524e+09
<GCONST> 9.124952e+02
<MIXTURE> 11 1.516346e-03
<MEAN> 39
 1.914973e+04 1.956906e+05 5.673983e+05 9.126086e+05 1.231686e+06 1.458217e+06 1.934183e+06 3.167672e+06 4.111632e+06 3.799684e+06 2.445751e+06 1.007112e+06 8.512296e+06 1.752139e+03 2.325426e+04 8.781650e+04 1.479392e+05 2.462790e+05 3.443671e+05 4.769547e+05 6.055602e+05 4.709478e+05 2.679191e+05 5.086179e+04 -1.006893e+04 1.107816e+06 6.845604e+02 3.279068e+03 6.100835e+03 -1.727200e+04 -2.423397e+04 -3.079509e+04 -3.729466e+04 -8.562480e+04 -1.403448e+05 -1.269047e+05 -2.705666e+04 1.691531e+04 -1.888340e+05
<VARIANCE> 39
 1.839577e+08 6.946489e+09 5.079096e+10 8.611819e+10 1.470501e+11 2.975196e+11 3.732946e+11 5.325284e+11 1.347679e+12 1.363152e+12 6.278501e+11 2.209800e+11 1.970715e+12 9.676321e+06 7.689064e+08 8.726294e+09 1.245960e+10 1.433108e+10 1.544379e+10 3.623283e+10 8.926024e+10 5.819687e+10 6.979192e+10 6.192987e+10 2.573520e+10 2.346362e+11 6.552250e+06 1.162702e+08 6.791399e+08 1.653705e+09 1.219510e+09 2.450842e+09 8.857662e+09 1.585801e+10 2.084908e+10 1.453654e+10 5.883663e+09 4.560962e+09 4.528601e+10
<GCONST> 9.914528e+02
<MIXTURE> 12 6.552998e-04
<MEAN> 39
 -1.044497e+02 2.100684e+03 9.513393e+03 1.674098e+04 1.394907e+04 1.550211e+04 -1.034678e+02 -3.823024e+04 -6.860287e+04 -8.012415e+04 -5.993038e+04 -2.000251e+04 -8.544304e+04 8.412014e+03 5.151683e+04 1.729238e+05 2.822104e+05 4.438683e+05 4.302087e+05 5.095101e+05 4.819966e+05 7.193566e+05 9.235334e+05 8.291223e+05 6.088012e+05 2.229632e+06 2.881947e+03 1.517956e+04 4.719293e+04 6.866499e+04 1.141187e+05 1.153388e+05 1.487803e+05 1.747753e+05 2.569838e+05 3.115923e+05 2.766449e+05 1.497139e+05 6.866195e+05
<VARIANCE> 39
 7.933951e+05 2.121240e+07 2.641278e+08 1.064737e+09 1.800131e+09 2.460522e+09 1.972472e+09 8.856273e+08 1.193009e+09 1.474370e+09 1.012553e+09 1.829708e+08 5.750761e+09 1.419258e+07 2.715767e+08 4.087407e+09 2.028389e+10 3.801645e+10 2.901911e+10 2.837402e+10 1.939867e+10 4.491810e+10 4.762947e+10 6.989250e+10 9.173588e+10 3.684057e+11 2.423618e+06 4.710275e+07 4.934486e+08 5.807412e+08 2.059233e+09 1.554110e+09 2.180586e+09 3.194511e+09 7.031304e+09 7.572768e+09 1.181169e+10 5.270421e+09 3.610154e+10
<GCONST> 9.092860e+02
<MIXTURE> 13 1.089074e-03
<MEAN> 39
 1.234521e+04 1.531418e+05 7.399603e+05 1.454221e+06 1.914038e+06 2.696388e+06 3.812381e+06 5.439174e+06 5.798442e+06 5.444475e+06 4.311773e+06 1.952700e+06 1.376982e+07 1.597255e+03 3.039767e+04 1.700211e+05 2.361456e+05 2.249380e+05 2.785002e+05 3.770519e+05 3.580669e+05 1.416598e+05 1.810676e+05 5.660328e+03 -1.121819e+05 7.727831e+05 5.079417e+03 9.526492e+03 -3.955809e+03 -7.346230e+04 -1.395303e+05 -2.148997e+05 -3.279943e+05 -3.949178e+05 -1.271049e+05 -6.447669e+04 4.509670e+04 2.503477e+05 -4.230642e+05
<VARIANCE> 39
 1.459711e+08 9.404268e+09 8.153812e+10 2.170037e+11 1.255510e+11 3.454506e+11 9.134138e+11 2.951656e+12 2.391272e+12 1.579513e+12 1.372867e+12 6.973445e+11 5.671300e+12 6.753798e+06 3.651838e+08 4.793560e+09 1.669331e+10 2.687796e+10 2.080778e+10 6.344491e+10 1.145759e+11 1.279636e+11 1.171347e+11 1.538029e+11 9.710673e+10 6.345945e+11 4.424208e+07 5.638980e+08 4.337700e+09 9.399553e+09 5.376273e+09 6.942683e+09 2.550207e+10 5.103120e+10 1.176012e+11 1.415014e+11 1.356614e+11 1.585017e+11 5.845778e+11
<GCONST> 1.029176e+03
<MIXTURE> 14 3.570873e-04
<MEAN> 39
 5.906415e+03 1.070654e+05 3.517426e+05 4.480777e+05 5.091078e+05 5.846152e+05 1.090545e+06 2.510138e+06 4.682912e+06 5.479852e+06 5.000832e+06 2.370048e+06 9.447209e+06 3.907486e+03 3.291698e+04 1.850094e+05 6.631418e+05 1.181494e+06 1.090468e+06 1.842196e+06 2.580184e+06 2.597783e+06 2.495927e+06 1.599569e+06 1.054059e+06 6.257082e+06 4.091774e+03 8.191667e+03 2.072664e+04 2.813350e+04 3.586591e+04 4.973216e+04 9.098258e+03 -1.953834e+04 -1.201946e+05 -2.520411e+05 -1.930856e+05 -8.768233e+04 -2.109428e+05
<VARIANCE> 39
 5.166016e+06 9.347881e+08 9.078341e+09 7.030491e+09 8.746422e+09 1.250403e+10 1.182677e+10 6.093300e+10 4.118092e+11 2.790630e+11 1.453999e+11 1.070073e+11 5.455180e+11 1.508389e+07 1.741386e+08 3.381028e+09 7.088103e+10 1.087269e+11 7.964466e+10 1.154314e+11 1.557741e+11 7.195471e+11 6.704581e+11 4.892232e+11 1.124994e+12 1.610904e+12 3.796686e+06 1.311548e+08 1.610076e+09 2.112231e+09 4.945720e+09 5.472560e+09 1.653058e+10 4.316941e+10 3.729053e+10 8.363385e+10 6.659373e+10 4.213687e+10 3.148342e+11
<GCONST> 9.949030e+02
<MIXTURE> 15 8.671831e-04
<MEAN> 39
 1.645555e+04 1.473529e+05 4.954484e+05 7.625440e+05 9.943958e+05 1.158620e+06 1.473740e+06 2.612213e+06 4.849939e+06 6.162064e+06 5.830045e+06 3.711622e+06 1.151850e+07 -9.936395e+03 -3.225398e+04 -9.626332e+04 -1.307021e+05 -1.906719e+05 -2.697725e+05 -2.563260e+05 -3.817983e+05 -9.218250e+05 -1.254924e+06 -1.499867e+06 -9.636187e+05 -2.452739e+06 8.698278e+03 3.478260e+04 7.976306e+04 5.899886e+04 8.703954e+04 1.136502e+05 1.031966e+05 1.162893e+05 1.094929e+05 1.766261e+05 2.656060e+05 2.545158e+05 5.750828e+05
<VARIANCE> 39
 1.344883e+08 7.559183e+09 5.901992e+10 1.294829e+11 4.143860e+11 6.074308e+11 8.259113e+11 1.209380e+12 4.586012e+12 6.108056e+12 8.288882e+12 5.193055e+12 1.271979e+13 1.836227e+08 2.223855e+09 1.394465e+10 2.293063e+10 6.424877e+10 2.148056e+11 1.323792e+11 9.424077e+10 3.699292e+11 7.411091e+11 9.461092e+11 5.308944e+11 2.078246e+12 7.234848e+07 6.832868e+08 2.097971e+09 3.700878e+09 6.242125e+09 2.000545e+10 1.915481e+10 2.646286e+10 6.932898e+10 2.525354e+11 2.878408e+11 1.857282e+11 5.847398e+11
<GCONST> 1.053520e+03
<MIXTURE> 16 1.060613e-03
<MEAN> 39
 2.990718e+03 2.689247e+04 1.038283e+05 2.111778e+05 2.829334e+05 3.766100e+05 4.888613e+05 6.617702e+05 9.968475e+05 1.231172e+06 7.736257e+05 2.668220e+05 2.214148e+06 -1.118668e+02 1.362570e+03 -4.018548e+03 -1.743617e+04 -3.753700e+04 -4.588364e+04 -9.475043e+04 -1.310037e+05 -2.377410e+05 -3.947554e+05 -2.617855e+05 -1.092644e+05 -5.441644e+05 -9.350022e+01 -6.484307e+02 -2.449339e+03 -1.149516e+04 -1.379140e+04 -2.068182e+04 -3.299100e+04 -4.820740e+04 -8.004596e+04 -1.075150e+05 -6.512949e+04 -1.984801e+04 -1.644818e+05
<VARIANCE> 39
 1.578468e+07 6.207018e+08 4.583937e+09 1.032803e+10 1.027159e+10 2.425121e+10 5.174868e+10 7.363518e+10 1.017314e+11 9.464216e+10 1.033137e+11 5.663051e+10 2.283779e+11 2.577120e+06 2.463920e+08 9.300002e+08 9.642595e+08 6.908217e+08 1.857887e+09 5.237868e+09 1.084195e+10 3.722092e+10 8.318994e+10 2.150767e+10 6.016546e+09 7.608914e+10 3.145286e+05 4.589340e+06 4.382249e+07 1.677778e+08 1.546542e+08 3.647804e+08 9.768423e+08 2.533407e+09 5.602335e+09 1.109821e+10 3.126998e+09 7.716519e+08 1.494726e+10
<GCONST> 9.175936e+02
<MIXTURE> 17 5.718533e-02
<MEAN> 39
 1.007770e+04 7.304253e+04 1.658325e+05 1.613311e+05 1.463975e+05 9.199680e+04 4.322922e+04 -5.166421e+03 -4.912734e+04 -5.616280e+04 -4.848890e+04 -3.119186e+04 2.048468e+05 2.817964e+02 7.560511e+02 2.602665e+02 -1.157458e+03 -1.316034e+03 -2.052843e+03 -2.513009e+03 -2.333967e+03 -1.343095e+03 -2.288972e+02 1.586671e+01 1.128566e+02 -3.885897e+03 9.679466e+00 4.569126e+02 1.340882e+03 1.110517e+03 1.099881e+03 6.215237e+02 4.520493e+02 3.797615e+02 2.668723e+02 9.976135e+01 5.041450e+01 8.190666e+00 2.407214e+03
<VARIANCE> 39
 2.959503e+07 6.087167e+08 2.227139e+09 1.592716e+09 1.276610e+09 6.867226e+08 5.666833e+08 6.357885e+08 7.359784e+08 5.654908e+08 4.831345e+08 2.404804e+08 5.649885e+09 2.804750e+06 5.250664e+07 2.192003e+08 1.562881e+08 1.105128e+08 4.036668e+07 1.811816e+07 8.953695e+06 3.725430e+06 1.131498e+06 1.587268e+06 2.745784e+06 2.486833e+08 6.161613e+05 1.202331e+07 4.559980e+07 3.102248e+07 2.396296e+07 9.181131e+06 3.640299e+06 1.830192e+06 7.107236e+05 2.674427e+05 3.388362e+05 5.966574e+05 5.635579e+07
<GCONST> 7.497556e+02
<MIXTURE> 18 1.031816e-02
<MEAN> 39
 6.950530e+03 1.309780e+05 4.346816e+05 5.356060e+05 6.052728e+05 6.183329e+05 6.834238e+05 7.363170e+05 5.881586e+05 3.453668e+05 1.215940e+05 -3.884377e+04 1.946462e+06 2.746646e+02 3.195657e+03 1.512363e+04 1.152285e+04 1.695052e+04 1.681836e+04 9.407465e+03 2.076268e+03 -6.389224e+02 -1.018447e+04 -9.436427e+03 6.431422e+02 2.276097e+04 3.539308e+02 6.357274e+03 9.481670e+03 8.567041e+03 8.055950e+03 1.113143e+04 1.371915e+04 1.696632e+04 1.553747e+04 9.593149e+03 6.078337e+03 2.089532e+03 4.406275e+04
<VARIANCE> 39
 1.300366e+07 2.418522e+09 1.269115e+10 1.190113e+10 1.121503e+10 1.286069e+10 1.666079e+10 1.937683e+10 1.610715e+10 1.170047e+10 5.757894e+09 7.672201e+08 6.251996e+10 1.484662e+06 3.737305e+08 1.600620e+09 1.269013e+09 1.258285e+09 1.292286e+09 1.309017e+09 1.685081e+09 1.452352e+09 1.174837e+09 4.241155e+08 3.738598e+07 5.877193e+09 3.915957e+05 6.324290e+07 2.625901e+08 2.114274e+08 2.415049e+08 2.504049e+08 2.887290e+08 3.718016e+08 2.749800e+08 2.791066e+08 8.437396e+07 4.769456e+06 1.153854e+09
<GCONST> 8.669252e+02
<MIXTURE> 19 6.844591e-03
<MEAN> 39
 7.684136e+03 1.601222e+05 4.517457e+05 5.547134e+05 6.520724e+05 7.564239e+05 9.352852e+05 1.162751e+06 1.027608e+06 7.147932e+05 3.668835e+05 2.009369e+04 2.780243e+06 1.787425e+03 1.113368e+04 2.535863e+04 2.161561e+04 1.477721e+04 4.077217e+03 -1.123914e+04 -5.214621e+04 -7.626017e+04 -5.221159e+04 -3.305931e+04 -1.342577e+04 -6.515334e+04 9.415967e+02 6.594105e+03 7.347978e+03 1.364239e+04 1.174095e+04 8.284162e+03 9.522400e+03 1.458941e+04 2.176795e+04 1.943826e+04 1.327064e+04 6.332472e+03 5.448984e+04
<VARIANCE> 39
 1.618121e+07 3.983916e+09 1.812687e+10 1.517816e+10 1.353929e+10 2.697757e+10 2.858804e+10 4.066055e+10 3.459766e+10 2.648072e+10 1.554258e+10 2.475744e+09 8.742706e+10 9.366679e+06 4.260933e+08 1.600433e+09 2.227753e+09 1.918406e+09 1.860408e+09 2.097084e+09 3.184017e+09 4.584968e+09 2.112266e+09 7.527322e+08 9.462269e+07 8.621605e+09 1.305676e+06 6.217154e+07 2.763218e+08 3.608877e+08 3.841188e+08 3.303128e+08 4.748521e+08 8.267427e+08 6.112153e+08 4.935855e+08 2.444649e+08 2.721682e+07 1.938319e+09
<GCONST> 8.910887e+02
<MIXTURE> 20 5.827912e-03
<MEAN> 39
 -1.167724e+03 -7.395076e+03 -1.925664e+04 -2.373627e+04 -2.728552e+04 -2.915042e+04 -3.439752e+04 -4.834286e+04 -6.122770e+04 -5.465952e+04 -4.373218e+04 -2.577190e+04 -1.535517e+05 -4.613100e+00 -4.049059e+00 1.926849e+01 4.756252e-01 2.051264e+01 4.511986e+01 5.203651e+01 9.309833e+01 2.096046e+02 1.571885e+02 4.071365e+01 -9.054060e+01 2.199705e+02 1.637935e+04 5.481094e+04 1.186557e+05 1.046972e+05 1.281844e+05 1.708959e+05 2.598178e+05 4.481474e+05 7.031318e+05 7.227511e+05 8.051525e+05 7.880374e+05 1.763903e+06
<VARIANCE> 39
 9.095614e+05 1.760200e+07 1.583566e+08 1.991616e+08 2.141789e+08 2.250097e+08 3.186303e+08 6.838856e+08 1.079020e+09 7.654268e+08 5.327208e+08 2.718706e+08 6.097814e+09 1.122779e+04 5.781198e+04 9.396368e+04 5.283610e+04 5.814789e+04 9.789226e+04 1.860465e+05 1.313180e+06 1.164184e+06 8.723480e+05 1.492468e+06 2.808014e+06 2.782652e+06 1.336847e+08 4.115911e+08 1.507074e+09 1.134696e+09 2.584298e+09 3.724929e+09 6.071248e+09 2.818322e+10 9.513239e+10 8.334089e+10 1.223175e+11 1.571785e+11 3.703066e+11
<GCONST> 7.837615e+02
<MIXTURE> 21 1.540786e-03
<MEAN> 39
 4.703164e+03 5.548792e+04 1.859861e+05 2.421798e+05 3.055274e+05 3.996259e+05 7.930872e+05 2.145528e+06 4.194838e+06 4.369561e+06 4.276743e+06 2.189413e+06 7.823132e+06 6.339049e+02 2.003317e+04 5.321766e+04 8.775122e+04 1.089224e+05 1.553269e+05 2.151156e+05 3.134703e+05 3.502997e+05 2.643442e+05 5.083729e+04 -4.625980e+04 6.424572e+05 1.694204e+04 6.958551e+04 1.687086e+05 2.103155e+05 2.724996e+05 3.411892e+05 4.910438e+05 7.278146e+05 8.494629e+05 7.502977e+05 7.850006e+05 8.221726e+05 2.247420e+06
<VARIANCE> 39
 3.984105e+06 4.551600e+08 4.577228e+09 2.283377e+10 1.608752e+10 7.877727e+09 1.613443e+10 1.407568e+11 4.887560e+11 5.262150e+11 8.561113e+11 3.992410e+11 1.548990e+12 1.700860e+07 2.286031e+08 2.281128e+09 3.829873e+09 6.053993e+09 1.492357e+10 2.222659e+10 3.341310e+10 6.084230e+10 6.312235e+10 7.811765e+10 1.426541e+10 2.083432e+11 2.075519e+07 1.678567e+08 7.349578e+08 3.652255e+09 7.245303e+09 8.533061e+09 2.354273e+10 5.710705e+10 1.075258e+11 8.309707e+10 9.892731e+10 9.606613e+10 4.398317e+11
<GCONST> 9.826759e+02
<MIXTURE> 22 8.897281e-04
<MEAN> 39
 2.684431e+04 1.619423e+05 5.187425e+05 7.638429e+05 1.015562e+06 1.207360e+06 1.336121e+06 1.778934e+06 2.615017e+06 2.629971e+06 1.692731e+06 4.485498e+05 5.795336e+06 -1.278641e+03 -1.054929e+04 -3.969767e+04 -6.626990e+04 -1.293530e+05 -1.303982e+05 -1.287351e+05 -1.961522e+05 -2.870550e+05 -3.857519e+05 -3.293879e+05 -1.141141e+05 -7.424987e+05 7.642059e+03 1.543514e+04 2.181299e+04 4.999209e+04 7.234916e+04 1.122746e+05 1.332831e+05 2.187612e+05 2.787454e+05 2.723404e+05 2.666821e+05 1.902776e+05 6.693622e+05
<VARIANCE> 39
 8.543334e+08 7.514005e+09 8.369608e+10 2.846340e+11 5.368395e+11 6.869606e+11 6.023654e+11 5.866093e+11 1.050022e+12 1.035824e+12 3.884188e+11 3.055975e+10 4.609832e+12 1.091447e+08 2.666412e+08 7.115107e+08 2.487411e+09 1.975023e+10 2.764202e+10 1.401239e+10 2.369871e+10 3.134589e+10 3.742969e+10 3.055331e+10 2.088646e+09 1.043071e+11 1.038089e+08 3.555196e+08 9.007623e+08 8.215954e+08 3.053212e+09 4.302486e+09 6.725588e+09 1.503454e+10 1.421285e+10 1.769862e+10 1.653839e+10 1.656600e+10 3.609206e+10
<GCONST> 9.924634e+02
<MIXTURE> 23 1.444851e-03
<MEAN> 39
 -5.194001e+02 -3.469857e+03 -9.082809e+03 -1.047412e+04 -1.287369e+04 -1.681155e+04 -1.830680e+04 -1.693556e+04 -2.107724e+04 -2.867183e+04 -1.944536e+04 -1.863076e+03 -6.512838e+04 1.387858e+04 9.153761e+04 2.431281e+05 2.528471e+05 3.025794e+05 4.268733e+05 5.099481e+05 4.684338e+05 5.829978e+05 8.526855e+05 6.560604e+05 4.483067e+05 1.979709e+06 1.753768e+03 1.039082e+04 2.704739e+04 2.632795e+04 3.347217e+04 4.809071e+04 6.032307e+04 5.906096e+04 7.094630e+04 1.006145e+05 7.593098e+04 4.616211e+04 2.286683e+05
<VARIANCE> 39
 1.673853e+05 4.961251e+06 2.835750e+07 3.771028e+07 6.398978e+07 8.201442e+07 7.173230e+07 5.873940e+07 8.882125e+07 1.774728e+08 1.111448e+08 1.160932e+08 1.110358e+09 3.311381e+07 1.204288e+09 7.770081e+09 8.190686e+09 7.763075e+09 1.297470e+10 1.416415e+10 1.752443e+10 1.763516e+10 7.307879e+10 4.543298e+10 3.993422e+10 2.161464e+11 2.371036e+05 7.865320e+06 4.826613e+07 5.568078e+07 1.236465e+08 1.499464e+08 2.907704e+08 5.703075e+08 4.712952e+08 7.887960e+08 3.362960e+08 1.992554e+08 2.634950e+09
<GCONST> 8.434070e+02
<MIXTURE> 24 1.584785e-03
<MEAN> 39
 7.607444e+04 3.690068e+05 1.255676e+06 1.962899e+06 2.609972e+06 2.951641e+06 3.740137e+06 5.456855e+06 6.898632e+06 8.665082e+06 6.869412e+06 3.387676e+06 1.806215e+07 -6.400975e+02 -4.035224e+03 1.353926e+04 3.598096e+04 3.393619e+04 3.439106e+04 3.523139e+04 -3.431712e+03 -3.920814e+04 -4.272125e+03 -1.645460e+04 -8.013391e+04 2.001664e+03 -1.002925e+04 -4.530675e+04 -1.462508e+05 -2.181959e+05 -2.901278e+05 -3.263444e+05 -4.114508e+05 -5.775018e+05 -6.720344e+05 -8.643544e+05 -6.477780e+05 -3.194428e+05 -1.848882e+06
<VARIANCE> 39
 5.141951e+09 6.322899e+10 2.754351e+11 6.975396e+11 8.476479e+11 1.414343e+12 3.914946e+12 9.214320e+12 6.569302e+12 1.924681e+13 7.746807e+12 3.734677e+12 1.858762e+13 3.065000e+07 5.462796e+08 5.344398e+09 3.814060e+09 5.955944e+09 7.602708e+09 2.147364e+10 4.852786e+10 1.988708e+11 3.104750e+11 2.423425e+11 5.645672e+10 5.432888e+11 9.953886e+07 1.041612e+09 4.511469e+09 9.549936e+09 1.091165e+10 1.971657e+10 5.274355e+10 1.054433e+11 7.618397e+10 3.158843e+11 2.617307e+11 1.206418e+11 3.357797e+11
<GCONST> 1.053194e+03
<MIXTURE> 25 1.687060e-03
<MEAN> 39
 1.191503e+04 1.109623e+05 3.309564e+05 4.186122e+05 5.122732e+05 5.814962e+05 7.427686e+05 1.087603e+06 1.485272e+06 1.529980e+06 1.011957e+06 3.413833e+05 3.333420e+06 -5.613348e+03 -3.716246e+04 -1.250610e+05 -1.699302e+05 -2.038223e+05 -2.115804e+05 -2.692490e+05 -3.897736e+05 -3.991695e+05 -4.097085e+05 -3.367269e+05 -1.818274e+05 -1.118447e+06 4.181773e+03 2.157367e+04 4.902743e+04 6.606938e+04 9.716254e+04 1.234227e+05 1.881491e+05 2.859659e+05 3.262086e+05 2.667538e+05 2.376909e+05 1.263570e+05 7.318107e+05
<VARIANCE> 39
 1.046240e+08 1.123510e+09 1.355408e+10 1.282483e+10 2.449014e+10 2.644211e+10 5.567025e+10 9.086312e+10 2.219450e+11 3.959257e+11 2.329465e+11 6.380398e+10 7.227950e+11 3.286019e+07 8.824286e+08 5.082019e+09 5.967104e+09 1.298103e+10 4.223132e+10 2.721271e+10 5.269608e+10 3.910906e+10 6.951366e+10 4.892442e+10 3.220807e+10 2.252816e+11 3.347849e+07 6.031856e+08 1.250200e+09 8.362157e+08 1.349614e+09 2.415861e+09 3.419008e+09 8.555977e+09 1.284437e+10 1.303223e+10 1.587129e+10 7.744871e+09 3.502732e+10
<GCONST> 9.737991e+02
<MIXTURE> 26 4.498899e-04
<MEAN> 39
 3.460974e+04 4.142346e+05 1.358859e+06 1.796714e+06 2.044632e+06 2.691396e+06 3.292984e+06 4.023582e+06 6.645462e+06 1.149129e+07 1.152420e+07 8.262384e+06 2.187409e+07 8.076921e+03 3.622989e+04 7.943063e+04 1.822409e+05 1.592897e+05 2.968242e+05 3.467670e+05 3.495428e+05 5.933703e+05 8.136671e+05 5.500632e+05 -1.507664e+05 1.332823e+06 2.240508e+04 9.582384e+03 -6.378965e+03 3.545399e+04 3.306937e+04 8.043916e+04 1.416245e+05 1.895982e+05 1.842051e+05 5.708107e+04 -1.358965e+05 -2.423162e+04 2.396219e+05
<VARIANCE> 39
 2.264527e+08 2.168124e+10 1.244227e+11 1.099497e+12 5.616433e+11 1.613868e+12 3.574341e+12 2.111973e+12 7.354317e+12 2.597855e+13 4.426345e+13 2.846023e+13 5.223683e+13 2.123286e+09 2.569280e+09 9.282358e+09 1.179263e+11 4.447781e+10 1.796368e+11 2.306873e+11 1.249102e+11 9.488692e+10 3.352485e+11 1.633069e+12 1.234273e+12 1.792059e+12 1.367399e+09 8.337494e+08 1.290753e+09 4.166768e+10 9.755659e+09 2.191994e+10 7.130000e+10 6.379602e+10 9.521068e+10 1.862997e+11 5.921649e+11 4.100065e+11 8.751592e+11
<GCONST> 1.080928e+03
<MIXTURE> 27 6.147542e-04
<MEAN> 39
 -4.751581e+02 -2.406027e+03 -6.071646e+03 -9.809969e+03 -1.164983e+04 -1.789434e+04 -2.611072e+04 -3.579871e+04 -4.984125e+04 -5.150683e+04 -3.697882e+04 -1.320822e+04 -1.068596e+05 4.213713e+03 2.237280e+04 6.891710e+04 1.167438e+05 1.627479e+05 2.016956e+05 2.024598e+05 1.888609e+05 2.657625e+05 2.995555e+05 2.510893e+05 1.683203e+05 7.972024e+05 3.220481e+03 1.655085e+04 4.997731e+04 8.430289e+04 1.202137e+05 1.517105e+05 1.718378e+05 1.739734e+05 2.485626e+05 2.643769e+05 2.205137e+05 1.359121e+05 6.699976e+05
<VARIANCE> 39
 1.878132e+05 1.089023e+07 1.591211e+08 3.511103e+08 9.545119e+08 1.168335e+09 9.596266e+08 5.967023e+08 1.055157e+09 1.059377e+09 4.568518e+08 1.172565e+08 5.308273e+09 6.782541e+06 2.588972e+08 1.684277e+09 1.771025e+09 3.752146e+09 4.046276e+09 5.677296e+09 4.631848e+09 9.813282e+09 9.478620e+09 1.751455e+10 7.736825e+09 4.243779e+10 6.278978e+05 2.404116e+07 2.378083e+08 6.928462e+08 2.346953e+09 2.312860e+09 4.683586e+09 6.439607e+09 1.704144e+10 6.601894e+09 1.255930e+10 5.971872e+09 4.490515e+10
<GCONST> 8.812717e+02
<MIXTURE> 28 1.013111e-03
<MEAN> 39
 2.606740e+05 1.152131e+06 2.458156e+06 1.688254e+06 2.127323e+06 2.984481e+06 4.660216e+06 9.179501e+06 1.513610e+07 1.426386e+07 1.723483e+07 1.788088e+07 3.634488e+07 1.159473e+04 5.465839e+04 1.397522e+05 1.626577e+05 2.007984e+05 2.182155e+05 3.428954e+05 8.751847e+05 1.635344e+06 1.397781e+06 1.378638e+06 8.250907e+05 2.956784e+06 -3.174154e+04 -1.323999e+05 -2.735171e+05 -1.956575e+05 -2.445148e+05 -3.375203e+05 -5.221123e+05 -1.028314e+06 -1.691314e+06 -1.506484e+06 -1.836622e+06 -1.977029e+06 -3.991536e+06
<VARIANCE> 39
 6.540666e+09 9.154061e+10 8.032425e+10 1.492292e+11 2.411551e+11 5.493933e+11 7.436150e+11 2.180457e+12 1.190943e+13 5.895204e+12 8.217712e+12 1.159999e+13 2.163523e+13 2.222896e+07 1.877949e+08 1.345764e+09 1.118314e+09 2.926907e+09 2.126908e+09 5.650375e+09 4.521912e+10 1.068395e+11 6.373949e+10 1.203261e+11 8.537906e+10 2.858195e+11 8.339799e+07 1.196906e+09 1.402035e+09 2.346576e+09 4.001943e+09 7.858081e+09 9.217742e+09 3.635257e+10 2.287473e+11 8.805930e+10 1.276747e+11 1.704779e+11 3.904798e+11
<GCONST> 1.028222e+03
<MIXTURE> 29 6.403482e-04
<MEAN> 39
 5.297734e+04 1.934842e+05 5.686185e+05 1.024909e+06 1.571608e+06 1.501376e+06 1.696655e+06 3.152040e+06 4.784930e+06 4.740784e+06 3.622894e+06 9.823031e+05 9.754104e+06 -5.240312e+04 -1.044429e+05 -3.672802e+05 -4.792416e+05 -5.674392e+05 -6.074312e+05 -8.227169e+05 -1.521398e+06 -2.331101e+06 -2.550775e+06 -2.456057e+06 -1.705091e+06 -5.538042e+06 3.807306e+04 4.822797e+04 9.223504e+04 5.841349e+04 1.079621e+05 2.561410e+05 4.603930e+05 7.370667e+05 1.129843e+06 1.403695e+06 1.717874e+06 1.872480e+06 3.234308e+06
<VARIANCE> 39
 3.514232e+09 1.863274e+10 4.131734e+10 4.663343e+10 1.937733e+11 1.008988e+11 3.943738e+11 1.482922e+12 2.701287e+12 1.693584e+12 4.518756e+11 3.839489e+10 4.169023e+12 2.933631e+09 9.029619e+08 1.365899e+10 1.823033e+10 5.975578e+10 2.750992e+10 1.034447e+11 3.311791e+11 7.387482e+11 1.389516e+12 9.940968e+11 1.086728e+12 3.459363e+12 3.828472e+08 4.932523e+08 2.399223e+09 2.128235e+09 4.809973e+09 8.932409e+09 3.904792e+10 1.099315e+11 5.455231e+11 2.989734e+11 3.506439e+11 4.642831e+11 1.411076e+12
<GCONST> 1.051787e+03
<MIXTURE> 30 1.349098e-03
<MEAN> 39
 3.964718e+04 8.961020e+04 1.194681e+05 1.698986e+05 2.546268e+05 2.794971e+05 3.198872e+05 4.714926e+05 5.845032e+05 5.699907e+05 3.302476e+05 4.212077e+04 1.335376e+06 -6.113713e+03 -5.101166e+03 -9.430093e+02 3.114901e+04 6.272612e+04 8.610305e+04 1.202921e+05 1.504114e+05 1.661209e+05 1.472659e+05 4.255067e+04 1.441211e+04 3.302212e+05 2.845517e+03 5.757963e+03 8.114637e+03 1.266561e+04 1.624088e+04 2.945586e+04 3.227326e+04 3.930215e+04 5.560289e+04 5.638045e+04 3.669628e+04 1.128688e+04 1.251781e+05
<VARIANCE> 39
 2.245627e+09 7.492609e+09 7.842904e+09 7.632070e+09 1.005127e+10 1.043139e+10 2.046574e+10 4.694335e+10 6.257899e+10 8.321355e+10 4.269841e+10 2.893800e+09 2.789015e+11 1.369721e+08 2.633638e+08 9.907841e+08 3.511098e+09 6.658449e+09 1.071085e+10 1.059693e+10 1.576104e+10 4.621331e+10 1.235564e+11 1.633325e+10 1.179750e+09 1.333521e+11 2.043351e+07 5.612375e+07 6.262989e+07 1.008328e+08 3.199240e+08 5.717632e+08 6.639091e+08 1.147192e+09 8.933016e+08 1.042411e+09 2.106678e+08 5.444820e+07 3.204960e+09
<GCONST> 9.239551e+02
<MIXTURE> 31 3.948146e-04
<MEAN> 39
 -5.237423e+03 -1.689392e+04 -3.838009e+04 -5.570116e+04 -7.436075e+04 -7.718431e+04 -7.889652e+04 -1.269207e+05 -1.571866e+05 -1.514467e+05 -1.228684e+05 -6.079095e+04 -3.943138e+05 1.038439e+05 1.119062e+05 2.201812e+05 3.051772e+05 4.991114e+05 8.039949e+05 1.421111e+06 1.998556e+06 2.428316e+06 3.249166e+06 4.159346e+06 3.381650e+06 7.627040e+06 3.172075e+04 6.362600e+04 1.329208e+05 2.007173e+05 2.878237e+05 4.464320e+05 7.044601e+05 1.048037e+06 1.365123e+06 1.815910e+06 1.953069e+06 1.323974e+06 3.826844e+06
<VARIANCE> 39
 3.617994e+07 3.257131e+08 1.551735e+09 2.314022e+09 3.506087e+09 3.485087e+09 3.634694e+09 6.850885e+09 8.185402e+09 6.022884e+09 6.277658e+09 1.963262e+09 6.033008e+10 1.240141e+10 7.680373e+09 3.991824e+10 8.964130e+10 1.507202e+11 4.051187e+11 1.174219e+12 2.093618e+12 2.778184e+12 5.587890e+12 1.262841e+13 8.683651e+12 3.170148e+13 6.055439e+08 9.833792e+08 4.269204e+09 7.279687e+09 5.575392e+09 1.920230e+10 7.394007e+10 8.008238e+10 4.457926e+10 2.508072e+11 6.013935e+11 6.599323e+11 1.115579e+12
<GCONST> 1.022366e+03
<MIXTURE> 32 1.178375e-03
<MEAN> 39
 1.653015e+03 1.314225e+04 3.383907e+04 4.953581e+04 6.235039e+04 6.555256e+04 7.007748e+04 1.018015e+05 1.888158e+05 3.134818e+05 3.130703e+05 1.574068e+05 5.595969e+05 -6.602598e+03 -3.646411e+04 -1.036171e+05 -1.073979e+05 -1.214024e+05 -1.553728e+05 -2.063815e+05 -2.262065e+05 -3.275932e+05 -4.103772e+05 -2.976707e+05 -1.456799e+05 -8.755970e+05 5.212449e+02 4.588460e+03 1.458962e+04 1.536020e+04 1.757001e+04 2.297076e+04 3.041929e+04 2.972509e+04 3.542208e+04 4.646788e+04 3.036810e+04 1.799048e+04 1.085913e+05
<VARIANCE> 39
 2.548966e+06 8.393073e+07 4.098203e+08 1.119658e+09 6.993917e+08 5.622931e+08 1.200617e+09 4.680639e+09 2.144333e+10 9.069707e+10 1.145461e+11 4.219394e+10 1.773353e+11 1.023409e+08 2.397739e+09 1.655880e+10 1.131766e+10 1.194345e+10 1.503222e+10 1.936002e+10 3.485814e+10 6.570146e+10 3.634346e+10 5.046895e+10 9.746597e+09 2.989545e+11 1.029140e+06 4.070798e+07 2.542138e+08 1.808887e+08 1.663477e+08 1.567333e+08 2.456390e+08 4.563328e+08 5.037683e+08 1.161588e+09 1.428372e+09 1.968896e+08 1.970420e+09
<GCONST> 9.077715e+02
<MIXTURE> 33 2.808097e-02
<MEAN> 39
 1.169123e+04 9.767767e+04 2.370346e+05 2.890501e+05 2.651977e+05 2.142114e+05 1.396803e+05 8.160053e+04 1.434597e+04 -3.422879e+04 -4.018765e+04 -2.756883e+04 5.096997e+05 9.197350e+02 2.851951e+03 4.356186e+03 5.040702e+03 1.164183e+03 -2.469746e+03 -4.252915e+03 -6.023066e+03 -4.811943e+03 -1.572710e+03 -2.026659e+02 7.905400e+01 -2.009084e+03 -2.536373e+01 7.256467e+02 2.513274e+03 3.120017e+03 2.522947e+03 2.190326e+03 1.612732e+03 1.411452e+03 1.168899e+03 5.140768e+02 1.140759e+02 -3.834873e+01 6.462462e+03
<VARIANCE> 39
 6.984399e+07 1.467508e+09 7.290292e+09 1.296538e+10 6.053470e+09 4.842220e+09 2.452296e+09 2.266512e+09 1.452159e+09 4.941659e+08 4.198402e+08 2.049670e+08 2.277443e+10 3.535601e+06 9.094736e+07 3.803632e+08 4.987216e+08 3.354303e+08 1.866844e+08 7.005468e+07 3.767567e+07 2.415279e+07 6.438802e+06 1.802187e+06 2.637010e+06 6.711368e+08 8.384959e+05 2.055809e+07 8.024256e+07 1.050877e+08 6.755755e+07 3.936468e+07 1.434171e+07 8.622773e+06 4.300000e+06 9.752577e+05 4.247799e+05 5.931356e+05 1.530341e+08
<GCONST> 7.876281e+02
<MIXTURE> 34 1.380592e-02
<MEAN> 39
 1.773591e+03 4.920213e+04 1.927986e+05 3.094025e+05 3.567023e+05 3.905599e+05 4.057715e+05 4.439056e+05 3.566763e+05 1.256780e+05 -4.366663e+04 -1.098995e+05 1.012008e+06 2.720300e+02 1.564224e+03 1.380872e+03 1.370214e+03 -1.482945e+03 -3.423016e+03 -7.368722e+03 -1.318863e+04 -1.964354e+04 -1.767377e+04 -1.020571e+04 -1.406808e+03 -2.849811e+04 2.592332e+02 2.496676e+03 7.451149e+03 1.028436e+04 1.070589e+04 1.033442e+04 1.214591e+04 1.550030e+04 1.450799e+04 1.002579e+04 4.793238e+03 1.258616e+03 4.072830e+04
<VARIANCE> 39
 1.755296e+07 1.686728e+09 1.536219e+10 2.031188e+10 1.601302e+10 1.414519e+10 1.109015e+10 1.534959e+10 2.432007e+10 1.066648e+10 4.261975e+09 3.861505e+09 6.283132e+10 1.160306e+06 9.617551e+07 5.562514e+08 9.836420e+08 1.173348e+09 1.148346e+09 1.100227e+09 1.122157e+09 9.426022e+08 4.929799e+08 1.154312e+08 8.064270e+06 4.500623e+09 2.096962e+05 1.900762e+07 1.206249e+08 1.857774e+08 1.505488e+08 1.319324e+08 1.348369e+08 1.883894e+08 1.901589e+08 6.982156e+07 2.055313e+07 1.748945e+06 5.372321e+08
<GCONST> 8.507318e+02
<MIXTURE> 35 1.919116e-02
<MEAN> 39
 2.533127e+02 1.637256e+04 5.333180e+04 7.745418e+04 9.430562e+04 9.644261e+04 7.844177e+04 3.840285e+04 -4.418497e+04 -1.215718e+05 -1.443622e+05 -1.054122e+05 1.611492e+04 -4.674362e+00 -1.226602e+02 -1.018560e+03 -1.793243e+03 -3.228451e+03 -5.437393e+03 -7.038766e+03 -8.565816e+03 -1.103395e+04 -7.744551e+03 -3.381972e+03 -3.574495e+02 -2.030116e+04 3.062809e+01 2.979919e+02 5.919794e+02 1.253619e+03 2.045494e+03 2.326041e+03 3.128471e+03 3.411339e+03 3.687135e+03 2.975533e+03 1.668929e+03 3.611615e+02 8.890963e+03
<VARIANCE> 39
 1.683902e+07 1.309447e+09 4.755144e+09 3.658066e+09 4.025575e+09 3.619618e+09 3.937949e+09 9.318339e+09 1.480702e+10 1.217379e+10 7.664485e+09 6.234479e+09 4.116347e+10 6.176999e+05 3.615978e+07 1.343107e+08 1.680732e+08 2.386524e+08 2.393085e+08 3.304636e+08 2.998179e+08 3.087558e+08 1.947658e+08 5.333058e+07 3.776561e+06 1.499503e+09 1.044095e+05 5.117758e+06 2.375286e+07 2.567243e+07 3.152253e+07 2.611992e+07 3.325563e+07 3.012118e+07 3.076153e+07 2.247379e+07 9.830716e+06 7.998421e+05 1.288098e+08
<GCONST> 8.104631e+02
<MIXTURE> 36 6.513405e-03
<MEAN> 39
 2.499680e+04 2.175389e+05 6.186856e+05 8.035744e+05 8.870648e+05 9.510879e+05 9.711689e+05 9.737071e+05 6.152088e+05 1.432372e+05 -7.484009e+04 -1.196071e+05 2.454316e+06 2.721827e+03 1.969323e+04 3.705632e+04 5.105782e+04 5.067380e+04 5.017597e+04 4.063995e+04 2.835122e+04 8.520447e+03 -4.087279e+03 -3.013423e+03 1.426879e+03 1.156228e+05 -7.788344e+01 -3.396421e+03 -1.358875e+04 -7.004353e+03 -5.399104e+03 -8.022219e+03 -9.871556e+03 -1.121254e+04 -5.640151e+03 -1.445284e+03 -1.052182e+01 5.290976e+01 -2.678757e+04
<VARIANCE> 39
 2.952809e+08 5.579139e+09 3.103877e+10 3.719648e+10 5.235348e+10 5.995865e+10 5.661247e+10 5.940881e+10 6.561962e+10 5.244447e+10 2.937273e+10 5.026251e+09 2.320127e+11 2.414424e+07 3.967410e+08 2.182291e+09 2.303765e+09 2.063950e+09 2.047501e+09 1.811076e+09 2.374227e+09 1.439862e+09 3.435652e+08 6.227306e+07 1.096934e+07 5.045058e+09 3.992716e+06 7.363810e+07 3.556474e+08 4.969068e+08 5.212612e+08 5.751558e+08 5.715637e+08 6.477951e+08 3.543229e+08 4.622540e+07 1.229144e+07 9.080866e+05 1.353727e+09
<GCONST> 8.884100e+02
<MIXTURE> 37 7.456993e-03
<MEAN> 39
 1.897994e+03 2.055407e+04 1.085756e+05 2.251838e+05 3.437270e+05 4.775471e+05 5.924024e+05 6.932541e+05 8.363618e+05 6.560032e+05 3.276675e+05 2.123995e+04 1.757270e+06 -7.033702e+01 2.488813e+02 9.119895e+02 -2.547974e+02 -4.349917e+02 4.880083e+03 7.715432e+03 -1.715153e+04 -5.198159e+04 -8.945956e+04 -7.239511e+04 -1.709151e+04 -9.597226e+04 6.056064e+01 5.953034e+02 3.880373e+02 1.849344e+03 5.932596e+03 7.208206e+03 4.404960e+03 9.341899e+03 9.717713e+03 1.316077e+04 1.446574e+04 4.625376e+03 2.929202e+04
<VARIANCE> 39
 5.259890e+06 1.709244e+08 2.657922e+09 1.040930e+10 1.975115e+10 5.099975e+10 7.014571e+10 5.366800e+10 1.010970e+11 7.138989e+10 3.721595e+10 5.401937e+09 2.820043e+11 2.887452e+05 8.004237e+06 1.606397e+08 4.639511e+08 1.334305e+09 2.706097e+09 3.503182e+09 4.367837e+09 6.200926e+09 2.667703e+09 1.291049e+09 7.872241e+07 1.700028e+10 4.985591e+04 1.800576e+06 3.926292e+07 1.171811e+08 2.417612e+08 4.317339e+08 5.644643e+08 6.047130e+08 7.981293e+08 4.385016e+08 2.014391e+08 9.469924e+06 2.397505e+09
<GCONST> 8.715796e+02
<MIXTURE> 38 3.207041e-03
<MEAN> 39
 3.580359e+02 4.719477e+03 1.478165e+04 1.939977e+04 2.208736e+04 2.068052e+04 1.527279e+04 1.248679e+04 1.146802e+04 2.414091e+04 2.443157e+04 1.047725e+04 7.360886e+04 -1.272924e+02 4.659162e+02 1.624493e+03 2.881606e+03 8.362023e+02 -7.090968e+02 -2.344927e+03 -2.806048e+03 -1.168914e+03 -2.798072e+03 -1.982051e+03 -4.968509e+02 -2.704659e+03 3.322608e+03 1.868856e+04 4.866812e+04 5.195248e+04 6.670959e+04 9.063874e+04 1.195082e+05 1.259314e+05 1.493115e+05 1.890942e+05 1.575137e+05 9.330174e+04 4.550502e+05
<VARIANCE> 39
 8.782909e+05 3.667704e+07 3.579748e+08 5.821130e+08 7.134055e+08 9.006166e+08 8.708008e+08 1.197655e+09 2.894069e+09 5.936527e+09 3.805597e+09 5.422363e+08 1.570942e+10 6.956912e+04 1.230553e+06 1.163439e+07 2.962319e+07 2.915452e+07 2.918824e+07 2.977888e+07 2.616482e+07 2.737060e+07 3.410192e+07 2.918902e+07 5.830330e+06 1.793332e+08 2.550882e+06 5.091484e+07 2.614682e+08 4.806368e+08 8.192970e+08 1.048466e+09 1.740613e+09 1.556793e+09 2.960606e+09 4.503547e+09 3.743530e+09 3.888624e+09 1.920316e+10
<GCONST> 8.160938e+02
<MIXTURE> 39 4.364175e-03
<MEAN> 39
 1.467917e+04 1.812186e+05 5.736978e+05 9.035299e+05 1.163512e+06 1.242387e+06 1.654647e+06 2.171689e+06 2.103398e+06 1.656101e+06 1.019874e+06 2.720931e+05 5.289602e+06 1.853504e+03 1.863835e+04 4.448624e+04 5.747015e+04 6.315420e+04 5.061561e+04 4.085923e+04 -9.855262e+03 -9.752950e+04 -8.100041e+04 -6.823191e+04 -3.896791e+04 -7.555758e+03 -7.110910e+02 -5.806149e+03 -2.134314e+04 -4.180980e+04 -5.644078e+04 -4.941548e+04 -7.683680e+04 -9.688590e+04 -7.394846e+04 -5.540292e+04 -3.601845e+04 -9.668656e+03 -2.140395e+05
<VARIANCE> 39
 1.233739e+08 1.023313e+10 6.061950e+10 1.044752e+11 1.273816e+11 1.049003e+11 1.829557e+11 2.314753e+11 2.446966e+11 3.264849e+11 1.529741e+11 3.563574e+10 8.884004e+11 1.282011e+07 3.654313e+08 1.959112e+09 4.874797e+09 6.812463e+09 5.214502e+09 1.232517e+10 1.662094e+10 1.528280e+10 9.396347e+09 5.355407e+09 9.793708e+08 4.090586e+10 2.655492e+06 1.001737e+08 5.227807e+08 1.099669e+09 1.334095e+09 1.100096e+09 2.273371e+09 3.977002e+09 3.138434e+09 3.390468e+09 1.915047e+09 3.329619e+08 1.007478e+10
<GCONST> 9.498525e+02
<MIXTURE> 40 4.625648e-03
<MEAN> 39
 1.925574e+04 2.159521e+05 4.529455e+05 6.576448e+05 7.626460e+05 8.408498e+05 1.054383e+06 1.402864e+06 1.421108e+06 1.091274e+06 5.948199e+05 1.094741e+05 3.520413e+06 1.950697e+03 2.072038e+04 3.983263e+04 4.294234e+04 5.358865e+04 5.377941e+04 6.627511e+04 6.734862e+04 1.525771e+04 -1.404129e+04 -1.491631e+04 -1.584878e+04 1.293694e+05 -1.480110e+03 -1.043301e+04 -7.832634e+03 -2.046085e+04 -1.992579e+04 -1.894961e+04 -2.678078e+04 -4.248827e+04 -4.797909e+04 -3.602922e+04 -1.856715e+04 -4.326832e+03 -1.042068e+05
<VARIANCE> 39
 1.290452e+08 1.004254e+10 1.139224e+10 2.390166e+10 4.781732e+10 3.902734e+10 6.021329e+10 9.704853e+10 1.232122e+11 6.966522e+10 3.911932e+10 8.719666e+09 2.621836e+11 3.737170e+06 2.711718e+08 1.214017e+09 1.643605e+09 2.272400e+09 1.812730e+09 3.117178e+09 5.623965e+09 3.525582e+09 2.133665e+09 1.389337e+09 1.856117e+08 1.041102e+10 1.994713e+06 1.224460e+08 2.553345e+08 4.862700e+08 7.429544e+08 3.411090e+08 6.165908e+08 1.415206e+09 1.993745e+09 1.475230e+09 4.793332e+08 4.383852e+07 4.282188e+09
<GCONST> 9.102542e+02
<MIXTURE> 41 5.377237e-04
<MEAN> 39
 -2.629984e+03 -2.275821e+04 -6.748041e+04 -9.915337e+04 -1.186496e+05 -1.252493e+05 -1.333415e+05 -1.793881e+05 -2.248577e+05 -2.034524e+05 -1.737858e+05 -1.229260e+05 -6.016242e+05 8.232863e+02 1.015761e+03 1.315797e+03 1.878456e+03 2.357476e+03 2.788240e+03 3.310831e+03 6.693479e+03 7.528520e+03 7.640259e+03 8.463277e+03 7.882558e+03 2.110560e+04 2.104602e+04 6.423493e+04 1.693165e+05 1.839198e+05 3.071590e+05 3.253482e+05 4.240541e+05 8.511468e+05 1.654964e+06 1.771356e+06 1.933898e+06 2.047853e+06 3.982174e+06
<VARIANCE> 39
 2.872080e+06 7.742410e+07 7.186359e+08 1.283677e+09 1.435283e+09 1.345825e+09 1.293777e+09 1.999728e+09 2.757537e+09 2.704285e+09 2.683401e+09 1.730990e+09 2.657887e+10 1.842480e+06 2.913553e+06 4.767677e+06 7.905833e+06 1.408870e+07 2.320990e+07 3.233190e+07 9.617770e+07 1.092192e+08 1.324356e+08 1.805730e+08 1.938752e+08 9.656264e+08 5.976976e+07 3.209803e+08 3.421593e+09 4.188331e+09 1.271591e+10 1.445948e+10 1.360106e+10 8.760854e+10 5.483681e+11 5.928602e+11 6.121742e+11 9.363479e+11 2.475204e+12
<GCONST> 8.808547e+02
<MIXTURE> 42 1.762328e-03
<MEAN> 39
 3.630022e+03 6.672397e+04 2.350957e+05 3.938636e+05 4.992278e+05 5.475926e+05 7.435416e+05 1.127032e+06 1.263203e+06 1.015117e+06 6.280588e+05 1.915893e+05 2.741255e+06 3.025925e+03 3.110606e+04 5.182353e+04 8.767395e+04 1.139210e+05 1.236307e+05 1.728906e+05 2.508003e+05 1.986921e+05 9.336277e+04 5.400396e+04 1.384777e+04 4.877663e+05 8.305400e+02 7.806472e+03 1.983848e+04 2.223879e+04 2.615364e+04 2.484518e+04 3.183932e+04 3.680913e+04 2.745828e+04 2.985973e+04 2.198760e+04 2.621591e+03 1.029964e+05
<VARIANCE> 39
 7.673346e+06 1.323954e+09 9.981952e+09 1.270645e+10 1.386558e+10 1.783483e+10 4.520091e+10 6.258055e+10 4.115812e+10 2.757954e+10 1.251245e+10 3.904280e+09 1.865317e+11 6.557539e+06 3.885908e+08 4.756143e+08 1.543629e+09 3.666147e+09 2.361016e+09 4.031864e+09 5.648723e+09 1.033714e+10 3.638743e+09 3.265776e+09 7.875814e+08 1.349604e+10 5.316088e+05 4.936007e+07 2.652420e+08 3.903444e+08 4.272846e+08 4.692506e+08 1.080641e+09 2.997979e+09 2.735087e+09 1.609999e+09 6.824054e+08 1.689242e+08 1.001923e+10
<GCONST> 9.043043e+02
<MIXTURE> 43 2.216109e-03
<MEAN> 39
 1.861706e+04 2.135245e+05 4.395930e+05 5.913322e+05 7.660582e+05 8.480696e+05 1.192829e+06 2.493144e+06 3.835508e+06 3.639838e+06 2.589883e+06 1.162689e+06 7.263180e+06 7.531258e+03 6.273328e+04 2.275627e+05 4.056473e+05 4.999969e+05 5.978095e+05 8.248736e+05 1.035368e+06 9.873772e+05 7.772771e+05 4.593261e+05 3.363248e+05 2.540050e+06 -1.869716e+02 -5.688272e+03 1.007932e+04 -3.032681e+03 -2.231263e+04 -2.686620e+04 -3.470814e+04 -8.437118e+04 -1.474778e+05 -1.442171e+05 -2.214705e+04 2.095016e+04 -1.877855e+05
<VARIANCE> 39
 1.031895e+08 8.002463e+09 1.047648e+10 2.196486e+10 5.766000e+10 6.250576e+10 1.862318e+11 2.934923e+11 2.491019e+11 4.279136e+11 4.550853e+11 1.793077e+11 6.451682e+11 1.765809e+07 6.165929e+08 7.964813e+09 3.379926e+10 4.728668e+10 5.012494e+10 8.826182e+10 1.187661e+11 1.337500e+11 1.043354e+11 1.504379e+11 1.984594e+11 5.879643e+11 2.727993e+06 1.031274e+08 9.266828e+08 2.257083e+09 4.331042e+09 4.070939e+09 7.027177e+09 1.687585e+10 2.228280e+10 1.410768e+10 9.083468e+09 5.779128e+09 8.661987e+10
<GCONST> 9.922943e+02
<MIXTURE> 44 1.816938e-03
<MEAN> 39
 6.953667e+04 2.508990e+05 4.935083e+05 5.935146e+05 7.155291e+05 8.066791e+05 9.001831e+05 1.146211e+06 1.216243e+06 1.046071e+06 6.311194e+05 1.121477e+05 3.258492e+06 1.018872e+04 1.291698e+04 6.568539e+03 7.753018e+02 -1.121182e+04 1.212991e+03 -1.250929e+04 -3.058566e+04 -7.611389e+04 -6.879160e+04 -4.041929e+04 -9.952878e+03 -8.896624e+04 -3.054852e+03 -8.248311e+03 -1.217163e+04 -1.749206e+04 -1.633811e+04 -9.749683e+03 -1.766726e+03 1.019116e+04 1.437554e+04 2.727692e+04 3.546679e+04 1.353439e+04 1.307351e+04
<VARIANCE> 39
 5.272719e+09 7.419587e+09 4.661648e+10 5.730236e+10 6.302389e+10 6.990048e+10 8.432584e+10 6.790198e+10 1.035673e+11 2.142664e+11 1.445046e+11 1.355206e+10 2.155959e+11 3.148396e+08 8.870055e+08 3.266502e+09 2.845462e+09 3.546897e+09 2.382427e+09 3.654124e+09 6.607474e+09 7.436015e+09 3.289671e+10 3.467037e+10 3.224102e+09 4.119300e+10 4.091196e+07 1.401612e+08 4.058892e+08 4.364054e+08 6.047927e+08 8.592164e+08 7.951284e+08 1.348641e+09 1.508828e+09 2.561246e+09 2.355585e+09 3.082776e+08 6.823406e+09
<GCONST> 9.471274e+02
<MIXTURE> 45 1.551539e-03
<MEAN> 39
 2.114326e+04 2.282093e+05 6.781795e+05 8.719550e+05 1.164962e+06 1.067621e+06 1.522826e+06 2.315902e+06 2.739102e+06 2.614130e+06 1.918016e+06 8.337764e+05 6.522102e+06 -1.929204e+03 -1.734582e+04 -9.150928e+04 -1.702379e+05 -2.927218e+05 -4.315118e+05 -5.966107e+05 -9.116743e+05 -9.901297e+05 -8.553341e+05 -6.876895e+05 -3.274256e+05 -2.193975e+06 -1.320206e+03 -1.519732e+04 -5.228232e+04 -6.259943e+04 -8.268939e+04 -7.375921e+04 -1.146528e+05 -1.173525e+05 -4.803001e+04 -2.134636e+04 -6.275962e+03 6.106543e+01 -2.430892e+05
<VARIANCE> 39
 3.658492e+08 1.685015e+10 6.564226e+10 7.368446e+10 2.470881e+11 6.212200e+10 1.928472e+11 5.946231e+11 3.672905e+11 3.450168e+11 2.216229e+11 1.797693e+11 9.462685e+11 7.431636e+06 9.243092e+08 7.886468e+09 6.878748e+09 1.226260e+10 3.081392e+10 3.957886e+10 7.993701e+10 6.623462e+10 6.941281e+10 5.089496e+10 1.635636e+10 1.656211e+11 3.364265e+06 2.046442e+08 1.068161e+09 2.181031e+09 5.160707e+09 5.143039e+09 8.544833e+09 1.827211e+10 1.181286e+10 1.533583e+10 6.271559e+09 5.102327e+09 6.026017e+10
<GCONST> 9.886031e+02
<MIXTURE> 46 2.966262e-03
<MEAN> 39
 5.160370e+04 3.773969e+05 1.164326e+06 1.301862e+06 1.641024e+06 2.190096e+06 2.729975e+06 3.223284e+06 3.879731e+06 4.212068e+06 3.367235e+06 1.849584e+06 1.060963e+07 2.163092e+03 1.238646e+04 3.859021e+04 3.794270e+04 4.805034e+04 4.340342e+04 5.800883e+04 6.276480e+03 -6.860202e+04 -5.891752e+04 -3.204450e+04 -1.677010e+04 2.877635e+04 -6.268679e+03 -4.315343e+04 -1.287339e+05 -1.395570e+05 -1.778360e+05 -2.420085e+05 -2.983539e+05 -3.321648e+05 -3.712486e+05 -4.056781e+05 -3.154364e+05 -1.773743e+05 -1.076883e+06
<VARIANCE> 39
 1.435227e+09 3.193467e+10 1.461860e+11 1.302162e+11 2.119586e+11 2.655048e+11 4.613550e+11 1.887506e+12 2.128188e+12 1.071716e+12 7.257716e+11 6.060330e+11 3.811948e+12 3.560111e+06 2.243971e+08 1.642423e+09 1.726220e+09 2.962955e+09 2.601692e+09 3.405682e+09 1.402748e+10 6.113053e+10 8.722395e+10 5.109925e+10 1.608168e+10 1.434767e+11 2.206397e+07 4.866577e+08 2.379018e+09 2.067400e+09 2.418269e+09 3.286669e+09 3.995639e+09 1.463504e+10 1.411843e+10 1.906863e+10 2.088648e+10 1.507423e+10 3.631165e+10
<GCONST> 9.922772e+02
<MIXTURE> 47 1.271134e-03
<MEAN> 39
 9.155169e+03 9.056648e+04 3.199324e+05 3.045042e+05 3.077105e+05 3.773156e+05 5.417984e+05 1.323105e+06 2.711434e+06 3.137773e+06 3.032283e+06 1.552745e+06 5.596399e+06 -6.168402e+04 -2.185318e+05 -4.121645e+05 -3.409449e+05 -3.701699e+05 -4.965169e+05 -8.217108e+05 -1.460962e+06 -2.540576e+06 -2.489572e+06 -2.731228e+06 -2.973858e+06 -6.090216e+06 6.496607e+03 2.568389e+04 5.003571e+04 4.864563e+04 6.227925e+04 7.701845e+04 1.215767e+05 1.567577e+05 1.420880e+05 1.400575e+05 1.675408e+05 3.460131e+05 5.487646e+05
<VARIANCE> 39
 2.066048e+07 3.296622e+09 4.201955e+10 2.265759e+10 1.065910e+10 1.103598e+10 2.273445e+10 6.635873e+10 4.121130e+11 6.715233e+11 7.377021e+11 2.118235e+11 1.382791e+12 2.706065e+08 3.572706e+09 1.004989e+10 9.262915e+09 2.354412e+10 5.904138e+10 8.126684e+10 1.827538e+11 4.518399e+11 4.309541e+11 6.129191e+11 9.237354e+11 1.501648e+12 2.231945e+07 1.518421e+08 9.684323e+08 9.021450e+08 1.076242e+09 1.228576e+09 2.521577e+09 5.962732e+09 3.337290e+10 2.177656e+10 2.759613e+10 3.546192e+10 8.482410e+10
<GCONST> 9.970309e+02
<MIXTURE> 48 3.186265e-03
<MEAN> 39
 -1.203591e+03 -5.059145e+03 -1.086881e+04 -1.352871e+04 -1.607527e+04 -1.765281e+04 -2.073908e+04 -3.000202e+04 -4.023425e+04 -3.733356e+04 -2.918070e+04 -1.742077e+04 -9.769329e+04 8.357422e+04 2.379045e+05 4.457840e+05 3.880553e+05 5.141053e+05 6.975320e+05 1.040758e+06 1.695725e+06 2.464973e+06 2.609835e+06 2.811813e+06 2.677813e+06 6.396382e+06 9.072983e+03 2.948915e+04 5.897697e+04 6.772200e+04 8.726307e+04 1.145258e+05 1.490661e+05 2.907984e+05 5.011232e+05 4.950469e+05 4.467857e+05 2.709333e+05 1.029114e+06
<VARIANCE> 39
 1.293971e+06 6.468767e+06 4.735797e+07 6.973504e+07 8.016707e+07 9.550509e+07 1.042463e+08 2.193187e+08 5.037913e+08 3.527894e+08 2.448624e+08 1.468570e+08 2.151870e+09 3.657774e+09 7.257628e+09 2.379607e+10 1.667617e+10 4.384990e+10 7.289944e+10 1.015984e+11 4.312572e+11 1.135550e+12 1.011408e+12 1.191189e+12 2.037124e+12 4.696016e+12 1.598778e+08 7.329747e+08 2.080758e+09 1.910114e+09 3.760202e+09 8.769553e+09 1.191071e+10 3.342705e+10 7.778218e+10 8.424813e+10 1.116204e+11 1.098686e+11 4.351498e+11
<GCONST> 9.476703e+02
<MIXTURE> 49 4.631224e-03
<MEAN> 39
 9.258063e+02 6.966601e+03 2.208869e+04 2.417017e+04 2.958139e+04 3.384119e+04 3.498083e+04 4.537256e+04 6.451852e+04 1.014800e+05 8.478431e+04 3.625945e+04 1.979880e+05 -1.348803e+03 -3.877745e+03 -6.062521e+03 -3.908615e+03 -7.509044e+03 -1.619263e+04 -2.179637e+04 -2.188739e+04 -1.894710e+04 -2.941333e+04 -2.577770e+04 -1.408304e+04 -6.973057e+04 3.425843e+03 2.018161e+04 5.341744e+04 5.548534e+04 6.955391e+04 9.512070e+04 1.165114e+05 1.109330e+05 1.384245e+05 1.964144e+05 1.566292e+05 9.549984e+04 4.538077e+05
<VARIANCE> 39
 1.982959e+06 3.285980e+07 3.242179e+08 5.074990e+08 6.405768e+08 9.213521e+08 1.044559e+09 9.611718e+08 1.167885e+09 3.257661e+09 1.868561e+09 7.531723e+08 8.711158e+09 1.817538e+06 4.557990e+07 3.352347e+08 4.629485e+08 6.207284e+08 1.033474e+09 1.630252e+09 1.395778e+09 2.250479e+09 5.645225e+09 3.230916e+09 1.076422e+09 2.183559e+10 2.562226e+06 6.855378e+07 4.353433e+08 4.315531e+08 5.342728e+08 7.626371e+08 1.016287e+09 1.481840e+09 1.732915e+09 3.525455e+09 2.620217e+09 1.776488e+09 1.292355e+10
<GCONST> 8.628486e+02
<MIXTURE> 50 1.888653e-03
<MEAN> 39
 6.721525e+03 9.337188e+04 3.109510e+05 3.245768e+05 4.008896e+05 4.456622e+05 7.038668e+05 1.439964e+06 2.500430e+06 2.783143e+06 2.595812e+06 1.352824e+06 5.290168e+06 -6.763716e+03 -2.049965e+04 -4.271224e+04 -4.131438e+04 -5.859368e+04 -7.383363e+04 -9.549294e+04 -2.001317e+05 -3.411350e+05 -3.084565e+05 -2.852229e+05 -1.893230e+05 -6.791126e+05 1.331050e+04 5.067662e+04 1.108026e+05 1.426397e+05 1.990968e+05 2.369305e+05 3.583818e+05 6.249731e+05 8.244022e+05 7.492191e+05 7.510160e+05 8.011658e+05 1.985154e+06
<VARIANCE> 39
 1.657451e+07 2.300894e+09 2.266661e+10 2.945208e+10 4.739567e+10 3.857616e+10 4.259231e+10 2.709976e+11 1.183072e+12 1.442602e+12 2.079982e+12 9.347587e+11 3.872732e+12 3.710864e+07 3.377528e+08 1.420993e+09 3.532442e+09 5.693461e+09 3.768067e+09 5.224359e+09 2.827339e+10 6.165512e+10 4.033113e+10 5.601607e+10 3.109979e+10 1.247436e+11 6.870951e+07 7.906048e+08 2.546103e+09 3.060659e+09 8.896142e+09 9.335022e+09 2.342941e+10 5.455204e+10 1.030553e+11 7.120739e+10 7.644874e+10 1.027281e+11 2.834313e+11
<GCONST> 9.967111e+02
<MIXTURE> 51 6.174603e-04
<MEAN> 39
 1.430143e+02 1.304808e+03 3.163946e+03 1.470444e+04 1.336290e+04 1.477863e+04 -9.831254e+03 -3.907205e+04 -5.116302e+04 -2.408533e+04 -5.305602e+03 8.225094e+03 -3.011829e+04 2.111957e+04 1.006005e+05 2.804128e+05 3.843448e+05 6.047564e+05 6.173342e+05 7.507885e+05 8.943526e+05 1.276506e+06 1.594858e+06 1.491970e+06 9.277920e+05 3.651714e+06 2.309937e+02 1.351501e+02 -2.332961e+03 -4.873798e+03 -1.075437e+04 -2.456498e+03 2.484773e+03 1.938478e+04 4.081711e+04 5.116970e+04 2.511178e+04 -3.797496e+04 3.304433e+04
<VARIANCE> 39
 7.969230e+06 6.759394e+07 3.881624e+08 1.632538e+09 3.026845e+09 4.959296e+09 1.871717e+09 1.340679e+09 2.180314e+09 1.610775e+10 1.762856e+10 5.075256e+09 3.352768e+10 3.113847e+08 3.010487e+09 1.106279e+10 1.128778e+10 3.187205e+10 8.673521e+09 2.680480e+10 6.579391e+10 1.195636e+11 9.032860e+10 2.823430e+11 9.517842e+10 2.998813e+11 2.626452e+06 2.872462e+07 1.886979e+08 3.035895e+08 6.355887e+08 6.835111e+08 9.631574e+08 1.708406e+09 3.916594e+09 6.881197e+09 5.185283e+09 3.222530e+09 2.061067e+10
<GCONST> 9.265936e+02
<MIXTURE> 52 8.489604e-04
<MEAN> 39
 2.506123e+04 9.439177e+04 2.083566e+05 1.256348e+05 1.513125e+05 2.173649e+05 3.553405e+05 6.755643e+05 9.907148e+05 1.150823e+06 1.627575e+06 1.885889e+06 3.065140e+06 5.391640e+04 2.194045e+05 4.580956e+05 4.188909e+05 5.138811e+05 6.313678e+05 1.003591e+06 2.260816e+06 3.902563e+06 3.292942e+06 3.839032e+06 3.491597e+06 8.200114e+06 -1.138237e+04 -4.746221e+04 -9.213089e+04 -5.494459e+04 -6.741644e+04 -1.063269e+05 -1.635550e+05 -2.812306e+05 -4.180409e+05 -3.779307e+05 -5.610045e+05 -7.698627e+05 -1.204858e+06
<VARIANCE> 39
 9.094654e+07 1.013192e+09 6.900904e+09 5.225582e+09 1.062008e+10 2.121987e+10 3.479259e+10 1.070864e+11 2.018981e+11 1.735950e+11 3.819439e+11 5.006436e+11 1.225679e+12 2.439063e+08 2.188156e+09 1.375191e+09 6.888325e+09 1.891191e+10 2.423815e+10 2.043577e+10 1.248977e+11 6.627766e+11 2.407407e+11 2.700365e+11 3.902222e+11 9.382574e+11 9.669854e+06 2.002040e+08 5.364714e+08 4.861398e+08 1.581420e+09 2.355259e+09 2.819901e+09 1.045145e+10 2.388367e+10 1.646032e+10 2.963019e+10 3.950635e+10 8.534403e+10
<GCONST> 9.850389e+02
<MIXTURE> 53 1.054056e-03
<MEAN> 39
 -2.081160e+02 1.126673e+02 6.805696e+03 7.939850e+03 1.463076e+04 2.033835e+04 2.788699e+04 3.580530e+04 4.271375e+04 3.820091e+04 2.818532e+04 7.490798e+03 9.385722e+04 5.504720e+03 3.720112e+04 1.021056e+05 1.225865e+05 1.661300e+05 2.293841e+05 3.166118e+05 3.035288e+05 4.010704e+05 5.846194e+05 3.707278e+05 1.832094e+05 1.152354e+06 2.426060e+02 7.896030e+02 5.593257e+02 -2.685891e+02 2.487397e+02 -4.385063e+02 -4.450269e+03 -5.846290e+03 -5.994013e+03 -6.691299e+03 -3.263199e+03 -1.636692e+03 -1.092006e+04
<VARIANCE> 39
 4.679617e+05 1.507615e+07 2.215843e+08 2.445673e+08 6.184808e+08 1.073313e+09 1.507222e+09 1.789975e+09 3.043384e+09 4.077818e+09 2.387964e+09 3.431520e+08 1.861121e+10 5.020529e+07 1.650543e+09 1.198037e+10 1.203848e+10 1.329798e+10 2.510980e+10 3.091520e+10 2.655278e+10 3.611284e+10 8.194153e+10 8.416915e+10 3.493179e+10 4.662979e+11 4.876122e+04 4.376792e+05 3.752416e+06 8.448912e+06 1.425425e+07 1.933478e+07 5.049930e+07 4.640913e+07 7.158466e+07 1.496966e+08 4.129391e+07 8.485242e+06 3.259084e+08
<GCONST> 8.521714e+02
<MIXTURE> 54 8.101804e-04
<MEAN> 39
 5.926702e+04 1.972894e+05 4.335926e+05 6.250046e+05 7.253110e+05 8.332134e+05 1.037388e+06 2.241239e+06 4.477300e+06 5.457262e+06 4.927226e+06 2.548172e+06 9.619254e+06 -4.828634e+04 -1.450445e+05 -3.000378e+05 -2.847879e+05 -3.015442e+05 -3.347081e+05 -4.185424e+05 -6.668751e+05 -1.091401e+06 -1.545109e+06 -1.718287e+06 -1.811274e+06 -3.537838e+06 -1.384585e+04 -4.297787e+04 -8.918995e+04 -9.834062e+04 -9.500569e+04 -9.677089e+04 -1.154165e+05 -2.548079e+05 -6.401400e+05 -8.999911e+05 -8.743772e+05 -6.337946e+05 -1.573658e+06
<VARIANCE> 39
 1.361457e+09 1.919464e+10 2.158654e+10 3.650189e+10 4.487390e+10 7.134186e+10 9.375290e+10 7.829958e+11 1.940895e+12 1.220030e+12 1.600225e+12 1.822624e+12 3.562629e+12 3.111613e+09 1.007375e+10 2.205901e+10 1.826979e+10 1.379788e+10 1.153867e+10 1.030330e+11 1.764245e+11 3.349957e+11 2.739886e+11 2.835702e+11 1.209383e+12 1.305158e+12 6.382501e+07 4.820204e+08 1.298485e+09 3.060685e+08 3.443027e+09 6.144157e+09 9.435594e+09 2.640175e+10 3.650860e+10 8.080744e+10 3.898596e+10 1.817189e+11 9.408158e+10
<GCONST> 1.028068e+03
<MIXTURE> 55 9.640216e-04
<MEAN> 39
 4.642800e+04 2.266409e+05 9.381998e+05 2.274374e+06 3.370043e+06 3.270136e+06 5.295492e+06 8.079750e+06 1.035893e+07 1.173413e+07 1.149163e+07 6.985698e+06 2.615706e+07 -9.199243e+03 -3.987060e+04 -1.123253e+05 -1.527086e+05 -2.230744e+05 -2.403997e+05 -4.444874e+05 -8.059527e+05 -1.147640e+06 -1.377502e+06 -1.616527e+06 -1.180420e+06 -3.000669e+06 -5.775176e+03 -2.261494e+04 -1.002615e+05 -2.792198e+05 -4.237998e+05 -4.031589e+05 -6.716941e+05 -1.016027e+06 -1.165546e+06 -1.291305e+06 -1.301589e+06 -8.052028e+05 -3.056226e+06
<VARIANCE> 39
 4.616577e+09 1.713000e+10 1.418298e+11 1.073900e+12 2.804838e+12 1.802032e+12 6.037160e+12 8.228593e+12 9.798807e+12 1.818988e+13 4.385662e+13 2.469486e+13 3.961454e+13 3.144710e+08 2.099216e+09 1.434044e+10 2.079841e+10 3.232040e+10 3.420292e+10 7.753037e+10 2.026120e+11 3.496705e+11 6.453169e+11 9.723805e+11 6.897064e+11 1.377024e+12 1.343486e+08 5.561971e+08 3.936669e+09 2.079280e+10 4.995175e+10 4.391673e+10 1.122566e+11 1.636030e+11 2.314413e+11 3.900785e+11 1.018954e+12 6.240832e+11 1.289685e+12
<GCONST> 1.085916e+03
<MIXTURE> 56 4.030958e-04
<MEAN> 39
 1.664784e+05 6.434949e+05 1.651056e+06 3.357192e+06 4.878052e+06 5.219131e+06 7.507276e+06 1.331830e+07 1.928034e+07 2.144884e+07 2.043401e+07 1.608403e+07 4.653548e+07 -2.188198e+03 6.820331e+03 7.242352e+04 1.500557e+05 1.950074e+05 2.014313e+05 2.499345e+05 4.048872e+05 3.792765e+05 4.938620e+05 1.266245e+05 -4.125348e+05 7.616280e+05 -2.088166e+04 -7.886534e+04 -2.032483e+05 -4.053517e+05 -5.749866e+05 -6.192633e+05 -9.044418e+05 -1.614070e+06 -2.281766e+06 -2.481456e+06 -2.397726e+06 -1.935922e+06 -5.518692e+06
<VARIANCE> 39
 9.890394e+09 1.607639e+11 9.161125e+11 1.672928e+12 3.531497e+12 1.925005e+12 3.670654e+12 4.453617e+12 1.976130e+13 3.906076e+13 7.323087e+13 9.092920e+13 1.162225e+14 2.487119e+07 4.097310e+08 5.531195e+09 8.735521e+09 2.909467e+10 2.118837e+10 3.088939e+10 6.279302e+10 3.561212e+11 6.173489e+11 5.785257e+11 2.279933e+11 8.400233e+11 1.703027e+08 2.711022e+09 1.433719e+10 2.571579e+10 4.223122e+10 1.912430e+10 3.837831e+10 8.537941e+10 4.598477e+11 9.640365e+11 1.481578e+12 1.690882e+12 2.737194e+12
<GCONST> 1.088273e+03
<MIXTURE> 57 1.768591e-03
<MEAN> 39
 -1.062652e+04 -4.228779e+03 -5.825186e+04 -1.264819e+05 -1.938258e+05 -2.904835e+05 -3.154998e+05 -4.723870e+05 -7.856602e+05 -7.503996e+05 -5.483710e+05 -2.522417e+05 -1.554796e+06 2.064617e+03 -1.643924e+03 -6.448113e+03 -8.107272e+03 -1.545413e+04 -2.272354e+04 -2.659631e+04 -3.848123e+04 -3.473400e+04 -1.781285e+04 -5.580310e+03 7.026949e+02 -7.136766e+04 -4.865988e+02 -1.447400e+03 8.355674e+02 3.898502e+03 4.945285e+03 8.946966e+03 6.768703e+03 1.074418e+04 1.637921e+04 1.002458e+04 8.714688e+03 4.200774e+03 3.001624e+04
<VARIANCE> 39
 2.653172e+09 8.049752e+09 1.661951e+10 2.585871e+10 2.466517e+10 2.607574e+10 2.829862e+10 3.983802e+10 3.026935e+10 1.430150e+10 4.052179e+10 1.193827e+10 1.959962e+11 2.370836e+08 1.061001e+08 2.760507e+08 3.300477e+08 8.058337e+08 9.994442e+08 1.059152e+09 1.475593e+09 1.736688e+09 1.024663e+09 5.587482e+08 3.335450e+07 6.627608e+09 1.217260e+08 3.481376e+07 5.032002e+07 8.227373e+07 7.799413e+07 1.188097e+08 1.169944e+08 4.659148e+08 2.186297e+08 2.271136e+08 2.734794e+08 9.111196e+07 1.031289e+09
<GCONST> 8.874645e+02
<MIXTURE> 58 2.755917e-03
<MEAN> 39
 3.418905e+03 2.161621e+04 5.784728e+04 1.000761e+05 1.522987e+05 2.002036e+05 2.871440e+05 4.552054e+05 7.931238e+05 1.015240e+06 8.019469e+05 2.106030e+05 1.673297e+06 -1.104373e+03 -2.893825e+03 5.953094e+01 7.682475e+03 1.056852e+04 1.008961e+04 2.394497e+03 -4.617650e+03 -3.458060e+04 -6.678681e+04 -1.008352e+05 -4.000755e+04 -8.982742e+04 4.328601e+03 2.113700e+04 6.519006e+04 8.209591e+04 1.082283e+05 1.162329e+05 1.288268e+05 1.676445e+05 2.192690e+05 2.728187e+05 2.516096e+05 1.556372e+05 6.503471e+05
<VARIANCE> 39
 8.788968e+06 1.034175e+08 1.173906e+09 2.704915e+09 4.880931e+09 8.245250e+09 1.624949e+10 3.881429e+10 1.168185e+11 1.598094e+11 8.980639e+10 1.235279e+10 2.910380e+11 2.097449e+06 2.838934e+07 1.916778e+08 6.747273e+08 1.146352e+09 1.563651e+09 1.932387e+09 4.733658e+09 1.348812e+10 2.032975e+10 1.533734e+10 1.766333e+09 5.314020e+10 1.068318e+07 1.379742e+08 1.110028e+09 1.589530e+09 3.325704e+09 1.863402e+09 4.930753e+09 1.275605e+10 2.146098e+10 4.643604e+10 2.770894e+10 1.092042e+10 8.853836e+10
<GCONST> 9.277209e+02
<MIXTURE> 59 1.001897e-03
<MEAN> 39
 2.320708e+05 7.260428e+05 1.320288e+06 1.053124e+06 1.315738e+06 1.806882e+06 2.842562e+06 4.602579e+06 7.602243e+06 8.430317e+06 1.041428e+07 1.002178e+07 2.056261e+07 5.086641e+04 1.578601e+05 2.868152e+05 3.145281e+05 3.733518e+05 4.820193e+05 7.255078e+05 1.453537e+06 2.570140e+06 2.658304e+06 2.755346e+06 1.995732e+06 5.643627e+06 -3.614276e+04 -1.074181e+05 -1.864008e+05 -1.523840e+05 -1.830528e+05 -2.578161e+05 -4.041046e+05 -6.670192e+05 -1.092628e+06 -1.122186e+06 -1.410974e+06 -1.434324e+06 -2.879967e+06
<VARIANCE> 39
 4.731529e+10 5.610349e+10 2.446976e+11 1.851637e+11 2.872992e+11 3.242919e+11 6.310805e+11 2.169180e+12 8.339481e+12 6.422218e+12 9.167066e+12 2.249985e+13 2.718365e+13 9.918148e+08 2.990670e+09 4.145220e+09 7.589720e+09 1.111159e+10 1.783096e+10 3.314979e+10 8.507882e+10 2.372060e+11 2.002697e+11 4.014331e+11 6.147071e+11 8.342983e+11 7.331583e+08 6.230578e+08 3.380381e+09 2.069134e+09 3.172747e+09 3.750783e+09 7.022321e+09 4.219172e+10 1.918593e+11 1.262285e+11 1.737813e+11 4.576271e+11 5.460986e+11
<GCONST> 1.055905e+03
<MIXTURE> 60 1.031714e-03
<MEAN> 39
 3.670169e+03 1.365507e+04 2.831174e+04 2.876917e+04 4.479736e+04 7.203334e+04 9.068608e+04 9.970377e+04 1.090112e+05 1.284289e+05 7.610030e+04 2.321918e+04 2.932800e+05 -4.989802e+03 -3.081601e+04 -8.917377e+04 -1.007682e+05 -1.327377e+05 -1.945016e+05 -2.755260e+05 -2.860751e+05 -3.286411e+05 -4.491738e+05 -2.900424e+05 -1.401941e+05 -9.482136e+05 -9.792719e+02 -4.496953e+03 -1.105844e+04 -1.225739e+04 -1.878396e+04 -2.775532e+04 -3.832082e+04 -3.965745e+04 -4.608774e+04 -6.416281e+04 -3.699837e+04 -1.798100e+04 -1.300432e+05
<VARIANCE> 39
 7.449172e+06 7.936728e+07 2.679513e+08 1.094929e+08 4.629830e+08 9.989126e+08 3.302053e+09 3.113909e+09 3.583203e+09 5.947935e+09 3.911638e+09 1.209273e+09 2.321151e+10 3.334908e+07 1.174602e+09 8.639691e+09 7.075119e+09 6.312076e+09 1.245282e+10 1.507324e+10 2.085722e+10 1.969127e+10 2.490207e+10 2.428310e+10 6.630374e+09 1.954068e+11 5.578260e+05 6.609330e+06 5.038433e+07 2.869706e+07 4.440674e+07 8.516366e+07 1.579690e+08 1.903199e+08 2.400546e+08 5.057898e+08 1.723164e+08 1.342875e+08 1.585614e+09
<GCONST> 8.722339e+02
<MIXTURE> 61 5.969095e-04
<MEAN> 39
 2.642837e+05 6.100882e+05 9.766561e+05 1.900554e+06 2.803840e+06 4.266932e+06 5.235428e+06 5.880178e+06 7.549231e+06 8.170968e+06 3.117970e+06 1.422109e+06 1.722736e+07 4.789570e+03 -4.361028e+04 -7.119666e+04 -5.429899e+04 4.324880e+04 -5.520480e+03 -3.016353e+05 -9.579314e+05 -1.080212e+06 -1.074215e+06 -4.531795e+05 -2.247808e+05 -1.722213e+06 4.504882e+03 -1.304560e+04 -1.355618e+04 -5.376145e+04 -1.252258e+05 -2.181086e+05 -2.075612e+05 -5.281797e+03 -1.057187e+05 -2.398652e+05 -5.982899e+04 -1.038998e+04 -4.277782e+05
<VARIANCE> 39
 8.594851e+10 1.750018e+11 1.920343e+11 6.649282e+11 8.106838e+11 1.719930e+12 2.916180e+12 9.957274e+12 1.157962e+13 1.298692e+13 3.490782e+12 8.561118e+11 2.477500e+13 1.374594e+10 1.214076e+10 1.951163e+10 7.314549e+10 1.107667e+11 3.151568e+11 5.515560e+11 2.492822e+12 2.625383e+12 1.781308e+12 2.091122e+11 7.295086e+10 6.667195e+12 2.199096e+08 1.631292e+09 3.536951e+09 1.255812e+10 1.920278e+10 4.757312e+10 1.089593e+11 1.358249e+11 9.878703e+10 1.456362e+11 2.141716e+10 4.661628e+09 4.095177e+11
<GCONST> 1.086601e+03
<MIXTURE> 62 3.656475e-04
<MEAN> 39
 3.874393e+04 2.001297e+05 8.394024e+05 1.346170e+06 1.728229e+06 1.796989e+06 2.600552e+06 4.821870e+06 6.992602e+06 5.787844e+06 4.358692e+06 1.544084e+06 1.308653e+07 -6.017439e+04 -1.081439e+05 -3.632846e+05 -6.316855e+05 -9.437179e+05 -1.026113e+06 -1.728631e+06 -2.810947e+06 -3.719299e+06 -3.906220e+06 -3.421464e+06 -2.723160e+06 -8.754004e+06 4.425188e+03 -1.064471e+04 -8.546856e+04 -1.904580e+05 -2.473302e+05 -2.039530e+05 -3.197678e+05 -5.508573e+05 -7.328176e+05 -4.452181e+05 -1.639811e+05 1.607733e+05 -1.137093e+06
<VARIANCE> 39
 1.670069e+09 1.108068e+10 5.232992e+10 1.017875e+11 1.803812e+11 2.053596e+11 3.540224e+11 1.294793e+12 6.636033e+12 2.250218e+12 1.157051e+12 1.248667e+11 6.655794e+12 6.394079e+09 9.455801e+09 6.226278e+10 4.708000e+10 9.401195e+10 8.030342e+10 8.268261e+10 2.906882e+11 5.219052e+11 1.353936e+12 2.345625e+12 3.357184e+12 5.830960e+12 1.000578e+08 1.415773e+08 4.858564e+08 2.249778e+09 1.199692e+10 1.223792e+10 3.690039e+10 5.333778e+10 1.270226e+11 6.922462e+10 5.939943e+10 8.560522e+10 3.610180e+11
<GCONST> 1.053172e+03
<MIXTURE> 63 5.789609e-04
<MEAN> 39
 1.382904e+04 4.783754e+04 1.092687e+05 8.900145e+04 1.510718e+05 2.165046e+05 3.158507e+05 3.512303e+05 3.555617e+05 3.856944e+05 3.253259e+05 1.278271e+05 1.016131e+06 -8.522581e+03 -5.090378e+04 -1.321566e+05 -1.251603e+05 -1.826637e+05 -2.224648e+05 -2.951249e+05 -3.153412e+05 -3.485479e+05 -3.955811e+05 -3.181158e+05 -1.605341e+05 -1.043122e+06 -3.468427e+03 -1.738825e+04 -4.354415e+04 -3.830717e+04 -5.973573e+04 -7.607274e+04 -1.043676e+05 -1.138052e+05 -1.205282e+05 -1.343373e+05 -1.126418e+05 -5.334741e+04 -3.582558e+05
<VARIANCE> 39
 2.597684e+07 2.000518e+08 1.271736e+09 1.312338e+09 2.963432e+09 4.685093e+09 1.580289e+10 1.967895e+10 1.864337e+10 8.749814e+09 8.386212e+09 1.866438e+09 8.492134e+10 1.613206e+07 2.191159e+08 1.335191e+09 7.720835e+08 7.044061e+08 9.537244e+08 2.655005e+09 6.835455e+09 9.905169e+09 8.011476e+09 6.670440e+09 1.731547e+09 1.989056e+10 1.397342e+06 1.285407e+07 7.907841e+07 6.548498e+07 2.000857e+08 2.057956e+08 7.003485e+08 1.211290e+09 1.268782e+09 8.835242e+08 8.787969e+08 2.089162e+08 5.052760e+09
<GCONST> 8.829856e+02
<MIXTURE> 64 3.594009e-04
<MEAN> 39
 -8.719444e+03 -1.236527e+04 -1.644793e+04 3.348527e+04 1.817902e+05 2.643028e+05 4.264308e+05 1.329992e+06 2.466196e+06 2.930830e+06 2.976995e+06 1.696850e+06 5.008937e+06 8.865277e+04 9.246895e+04 1.632476e+05 3.287156e+05 8.345051e+05 1.534850e+06 2.001848e+06 3.330269e+06 4.367375e+06 4.521530e+06 4.973225e+06 3.911545e+06 1.067497e+07 4.977372e+04 7.614480e+04 1.468854e+05 2.080582e+05 2.862084e+05 4.321592e+05 5.699751e+05 8.993329e+05 1.151708e+06 1.207309e+06 1.375084e+06 1.112290e+06 3.067957e+06
<VARIANCE> 39
 2.065551e+08 4.785314e+09 2.596250e+10 7.804152e+10 2.560935e+11 4.324786e+11 7.681027e+11 4.070425e+12 1.174904e+13 1.386417e+13 1.336666e+13 4.284851e+12 4.987984e+13 8.073352e+09 6.726298e+09 1.951973e+10 7.953365e+10 2.332636e+11 5.019786e+11 1.002230e+12 1.818477e+12 3.852160e+12 5.084878e+12 1.012723e+13 5.570183e+12 2.752073e+13 5.060551e+08 2.462504e+08 1.146864e+09 2.329070e+09 8.813243e+09 3.465747e+10 5.934175e+10 2.501077e+11 3.917697e+11 3.989517e+11 4.090401e+11 1.525820e+11 1.768132e+12
<GCONST> 1.088642e+03
<MIXTURE> 65 2.308278e-02
<MEAN> 39
 1.227618e+04 1.132340e+05 2.643387e+05 3.237209e+05 2.757942e+05 2.177565e+05 1.034503e+05 -1.258957e+04 -1.272447e+05 -1.691119e+05 -1.571672e+05 -9.777501e+04 3.048318e+05 -2.839473e+02 -8.039034e+02 -4.871007e+03 -1.045365e+04 -1.150351e+04 -1.220668e+04 -1.229353e+04 -1.115904e+04 -7.062562e+03 -1.979221e+03 -2.494184e+02 1.984688e+00 -2.974680e+04 1.166462e+02 3.893902e+02 1.277095e+03 1.784603e+03 2.333841e+03 2.234749e+03 1.790427e+03 1.376748e+03 1.119020e+03 5.691793e+02 1.797727e+02 6.105702e+01 5.402157e+03
<VARIANCE> 39
 4.814679e+07 2.252562e+09 8.702266e+09 1.171450e+10 8.228028e+09 6.447608e+09 4.185664e+09 3.540955e+09 4.308152e+09 3.803896e+09 2.490861e+09 1.309324e+09 2.835737e+10 4.709704e+06 1.662021e+08 6.743409e+08 8.720855e+08 5.639440e+08 4.695352e+08 1.824461e+08 9.671655e+07 4.070042e+07 9.194718e+06 2.920704e+06 3.032601e+06 1.265292e+09 7.529901e+05 3.403546e+07 1.369052e+08 1.861908e+08 1.106013e+08 7.985277e+07 2.567950e+07 1.282706e+07 4.478930e+06 1.361080e+06 5.195184e+05 6.201744e+05 2.336277e+08
<GCONST> 8.085402e+02
<MIXTURE> 66 2.556695e-02
<MEAN> 39
 8.794369e+02 1.710709e+04 4.222181e+04 3.458076e+04 1.166121e+04 -2.930010e+04 -8.707778e+04 -1.570846e+05 -2.095095e+05 -1.931206e+05 -1.648195e+05 -9.726730e+04 -3.395519e+05 -2.367778e+02 -2.188583e+03 -5.524380e+03 -7.370749e+03 -6.889469e+03 -5.993059e+03 -4.238493e+03 -3.054016e+03 -1.345674e+03 -1.187330e+02 3.906321e+01 7.867104e+00 -1.506967e+04 7.886787e+01 5.153223e+02 1.132868e+03 1.563151e+03 1.442858e+03 9.853349e+02 6.613646e+02 5.273686e+02 3.473382e+02 1.506314e+02 1.222031e+02 1.829387e+01 3.080480e+03
<VARIANCE> 39
 1.104593e+07 5.381903e+08 2.559355e+09 3.310978e+09 2.777453e+09 1.831136e+09 1.223608e+09 1.292191e+09 1.583697e+09 1.513502e+09 9.364036e+08 8.640117e+08 1.555237e+10 5.728047e+05 2.035300e+07 8.910467e+07 1.170140e+08 9.207195e+07 4.154394e+07 1.759835e+07 9.975664e+06 6.648641e+06 2.802368e+06 3.419728e+06 2.540996e+06 2.075072e+08 1.291920e+05 5.270438e+06 2.030098e+07 2.098513e+07 1.584709e+07 7.036595e+06 2.432897e+06 9.468952e+05 6.935750e+05 4.185325e+05 5.422002e+05 5.602244e+05 3.334896e+07
<GCONST> 7.506306e+02
<MIXTURE> 67 3.058955e-02
<MEAN> 39
 4.669819e+03 7.732604e+04 2.499718e+05 3.220521e+05 3.318792e+05 3.001600e+05 2.578109e+05 2.193930e+05 1.209368e+05 -7.344343e+03 -5.218472e+04 -4.145882e+04 7.279931e+05 -6.383488e+01 -2.943311e+03 -1.277385e+04 -1.471494e+04 -1.852689e+04 -1.963720e+04 -2.095681e+04 -2.222761e+04 -1.948041e+04 -8.997702e+03 -2.537226e+03 -2.391867e+01 -5.833203e+04 1.785533e+02 1.581496e+03 4.580946e+03 6.290017e+03 6.092686e+03 5.340264e+03 5.283581e+03 5.159596e+03 4.517504e+03 2.122076e+03 7.917335e+02 9.959355e+01 1.716196e+04
<VARIANCE> 39
 1.625948e+07 1.266979e+09 9.728066e+09 1.333715e+10 9.409951e+09 7.594171e+09 5.689461e+09 6.239478e+09 5.209978e+09 2.361132e+09 1.705200e+09 7.791627e+08 4.176721e+10 1.355586e+06 1.468252e+08 6.125213e+08 5.506474e+08 4.523114e+08 3.356791e+08 2.600306e+08 2.489757e+08 1.639648e+08 4.995141e+07 9.546826e+06 3.074864e+06 1.112222e+09 1.856072e+05 1.987638e+07 1.183845e+08 1.346826e+08 9.534115e+07 6.318796e+07 5.801930e+07 5.370612e+07 2.910108e+07 8.559765e+06 2.110949e+06 6.767064e+05 2.418748e+08
<GCONST> 8.151589e+02
<MIXTURE> 68 8.145116e-03
<MEAN> 39
 3.931134e+03 4.709254e+04 1.406725e+05 1.842145e+05 2.269709e+05 2.452388e+05 2.519945e+05 2.646330e+05 2.657888e+05 1.532359e+05 1.847818e+04 -4.152439e+04 7.188134e+05 -1.566701e+02 -6.035088e+02 -4.274541e+03 -7.256351e+03 -9.044229e+03 -1.383478e+04 -1.865472e+04 -2.261008e+04 -3.130670e+04 -2.871197e+04 -1.550380e+04 -3.571331e+03 -6.349433e+04 8.309345e+00 -3.483228e+02 2.430180e+02 1.742185e+03 -1.679767e+02 -3.619934e+00 4.759946e+01 1.723058e+03 3.289210e+03 3.323880e+03 3.536517e+03 1.074807e+03 5.906810e+03
<VARIANCE> 39
 3.502130e+07 1.261143e+09 7.590338e+09 6.881351e+09 7.040770e+09 8.608377e+09 1.367905e+10 3.235651e+10 5.927396e+10 3.121449e+10 5.872225e+09 2.338881e+09 9.303990e+10 1.926338e+06 3.968140e+07 2.700415e+08 2.671471e+08 2.533733e+08 2.445843e+08 2.870567e+08 3.154080e+08 6.868690e+08 8.454043e+08 6.184208e+08 5.938910e+07 2.063885e+09 3.365415e+05 7.361610e+06 5.386276e+07 3.960645e+07 5.769788e+07 4.091950e+07 6.221770e+07 4.767570e+07 8.274665e+07 6.648614e+07 6.437986e+07 7.009012e+06 2.189430e+08
<GCONST> 8.398265e+02
<MIXTURE> 69 1.648778e-02
<MEAN> 39
 8.006094e+03 1.583106e+05 5.002928e+05 5.817087e+05 6.244914e+05 6.072729e+05 6.019231e+05 6.325472e+05 4.964908e+05 1.960677e+05 3.141981e+04 -3.665687e+04 1.797058e+06 -1.092877e+02 -1.663043e+03 -3.002834e+03 -5.266064e+03 -4.331446e+03 -1.505629e+04 -2.415831e+04 -2.806778e+04 -2.351528e+04 -1.881888e+04 -8.661769e+03 1.560715e+03 -5.351739e+04 -1.555344e+02 -3.129739e+03 -8.906431e+03 -6.290884e+03 -5.015890e+03 -4.968996e+03 -5.102374e+03 -5.513976e+03 -4.145809e+03 1.062349e+03 1.243556e+03 -1.985252e+01 -1.671515e+04
<VARIANCE> 39
 1.524092e+07 3.376356e+09 2.068582e+10 1.386239e+10 1.259035e+10 1.297630e+10 1.343678e+10 1.800533e+10 1.704590e+10 7.791708e+09 3.051537e+09 7.493852e+08 6.197913e+10 1.642253e+06 2.849538e+08 1.635490e+09 1.162609e+09 1.191115e+09 1.171889e+09 9.232300e+08 1.251380e+09 1.080416e+09 2.565480e+08 6.813089e+07 1.094999e+07 4.189009e+09 3.680513e+05 5.935651e+07 3.611564e+08 2.259605e+08 2.326927e+08 2.242882e+08 1.949628e+08 2.228696e+08 1.843460e+08 4.405780e+07 1.392437e+07 2.436190e+06 6.751667e+08
<GCONST> 8.545822e+02
<MIXTURE> 70 1.324516e-02
<MEAN> 39
 3.061567e+04 2.379452e+05 5.793123e+05 7.972458e+05 8.797033e+05 9.188972e+05 8.239172e+05 7.273066e+05 3.744808e+05 -1.577518e+04 -1.499729e+05 -1.352200e+05 2.069188e+06 -3.540224e+02 -3.216356e+03 -1.013027e+04 -1.853781e+04 -2.775039e+04 -3.583956e+04 -4.499432e+04 -5.979654e+04 -5.349055e+04 -2.535609e+04 -7.348255e+03 1.602390e+02 -1.170260e+05 -3.063441e+01 -2.181924e+03 -3.650646e+03 -4.005758e+03 -3.786564e+03 -3.707873e+03 1.791304e+02 1.690789e+03 3.498564e+03 2.314356e+03 8.290870e+02 3.500406e+01 -3.599304e+03
<VARIANCE> 39
 3.148034e+08 8.553176e+09 2.738974e+10 3.567544e+10 4.392759e+10 5.025659e+10 4.759953e+10 7.028517e+10 8.197250e+10 3.592609e+10 1.442265e+10 2.789159e+09 2.880409e+11 1.838809e+07 5.123188e+08 2.468942e+09 2.423433e+09 2.300574e+09 2.172606e+09 1.721869e+09 1.686368e+09 1.240078e+09 3.154521e+08 7.914671e+07 8.763386e+06 4.674975e+09 2.445164e+06 1.039748e+08 5.350145e+08 5.613221e+08 5.817757e+08 5.413673e+08 4.666347e+08 4.924318e+08 3.012452e+08 4.616573e+07 5.394916e+06 1.069923e+06 1.965532e+09
<GCONST> 8.862813e+02
<MIXTURE> 71 7.451327e-03
<MEAN> 39
 3.109287e+02 5.212098e+03 1.682260e+04 1.779116e+04 2.269848e+04 2.382945e+04 2.410788e+04 2.528744e+04 4.142443e+04 5.707135e+04 4.461106e+04 1.760348e+04 1.211560e+05 -3.922770e+01 2.738755e+02 1.471881e+03 1.946575e+03 1.067234e+03 1.052240e+03 1.223501e+03 1.567302e+03 8.652349e+02 -1.199964e+03 -1.092528e+03 -9.409481e+02 2.529170e+03 7.473619e+02 3.824488e+03 1.048817e+04 1.397739e+04 2.048771e+04 2.871586e+04 4.194521e+04 4.309203e+04 5.297058e+04 7.604602e+04 4.722016e+04 2.423548e+04 1.485005e+05
<VARIANCE> 39
 6.522764e+05 4.555970e+07 4.174692e+08 6.357119e+08 1.059556e+09 1.160254e+09 1.283157e+09 9.932896e+08 1.900371e+09 3.946628e+09 2.686546e+09 9.016168e+08 1.649350e+10 2.497810e+04 1.753155e+06 1.167230e+07 1.755785e+07 3.230089e+07 3.073394e+07 3.608069e+07 4.674783e+07 6.575878e+07 1.707639e+08 5.937725e+07 1.211258e+07 4.152321e+08 4.259497e+05 1.094862e+07 6.558821e+07 4.943827e+07 8.439087e+07 1.571915e+08 3.234876e+08 3.494996e+08 6.195459e+08 1.640156e+09 4.912275e+08 2.864513e+08 3.459530e+09
<GCONST> 7.977303e+02
<MIXTURE> 72 7.773559e-03
<MEAN> 39
 -7.107207e+02 8.602846e+03 6.757585e+04 1.259225e+05 1.855189e+05 2.555815e+05 3.079179e+05 3.438640e+05 3.955768e+05 3.838116e+05 1.714166e+05 -2.886860e+02 9.164313e+05 -4.945496e+01 -2.285424e+02 2.230391e+02 -1.850097e+03 -8.208936e+02 -2.805191e+03 -1.178717e+04 -1.767338e+04 -4.625438e+04 -7.174946e+04 -5.725645e+04 -2.499945e+04 -9.604102e+04 1.689763e+01 -1.485022e+01 -5.827703e+02 1.711459e+03 1.842186e+03 4.760132e+01 8.851868e+02 3.881816e+03 6.628688e+03 5.733563e+03 7.627112e+03 4.286996e+03 1.309002e+04
<VARIANCE> 39
 4.230734e+06 1.744195e+08 1.931690e+09 7.198331e+09 1.268375e+10 3.429129e+10 3.764851e+10 4.215935e+10 8.107565e+10 1.612178e+11 1.255544e+11 3.091836e+10 3.204832e+11 1.094168e+05 9.203070e+06 1.087782e+08 6.287021e+08 8.996952e+08 1.351979e+09 2.156696e+09 2.767228e+09 4.994687e+09 7.474004e+09 5.497762e+09 8.909749e+08 2.108788e+10 3.192679e+04 2.463560e+06 3.263118e+07 1.056302e+08 1.197678e+08 2.418842e+08 3.565782e+08 3.610431e+08 6.984365e+08 1.084980e+09 7.923542e+08 1.518074e+08 3.032870e+09
<GCONST> 8.771051e+02
<MIXTURE> 73 7.171559e-03
<MEAN> 39
 9.753671e+03 1.496094e+05 4.584153e+05 6.202858e+05 7.196156e+05 8.482276e+05 9.634020e+05 1.113769e+06 1.007825e+06 6.372302e+05 2.712257e+05 -8.181119e+03 2.772487e+06 -1.813205e+03 -6.958499e+03 -6.337271e+03 -2.621071e+04 -3.869191e+04 -4.957036e+04 -6.608934e+04 -9.787391e+04 -1.084915e+05 -9.939419e+04 -6.216496e+04 -1.566100e+04 -2.364806e+05 -1.627473e+02 -3.345585e+03 -6.040950e+03 -6.390232e+03 -5.175437e+03 -8.987188e+03 -8.655960e+03 -6.213612e+03 -1.639548e+03 5.957946e+03 7.625718e+03 3.395923e+03 -1.209708e+04
<VARIANCE> 39
 4.138272e+07 7.641763e+09 3.733250e+10 3.357123e+10 3.256185e+10 5.335966e+10 5.893682e+10 8.071671e+10 1.230302e+11 8.214753e+10 3.202721e+10 3.306876e+09 2.320163e+11 5.355426e+06 1.887795e+08 1.008083e+09 1.610037e+09 1.696026e+09 1.952041e+09 1.845299e+09 2.852019e+09 3.889217e+09 2.795132e+09 1.082583e+09 1.612126e+08 7.828657e+09 7.153692e+05 8.577046e+07 3.771916e+08 3.807290e+08 4.040743e+08 3.960955e+08 4.733823e+08 7.344832e+08 7.616646e+08 4.179540e+08 1.255939e+08 1.289626e+07 1.914375e+09
<GCONST> 8.988196e+02
<MIXTURE> 74 5.468381e-03
<MEAN> 39
 9.988558e+03 9.787155e+04 2.941149e+05 4.847736e+05 5.631164e+05 6.334559e+05 6.476735e+05 6.366381e+05 4.254789e+05 1.015042e+05 -9.197235e+04 -1.429415e+05 1.494067e+06 6.015052e+02 9.138232e+03 2.808778e+04 2.501752e+04 4.232697e+04 4.658604e+04 6.269132e+04 7.236833e+04 6.235068e+04 2.592074e+04 4.961184e+03 2.705532e+03 1.562594e+05 2.643706e+02 3.728822e+03 1.580675e+04 2.433425e+04 2.685802e+04 2.993931e+04 3.015409e+04 3.303798e+04 2.716793e+04 1.013904e+04 3.167201e+03 4.953602e+02 8.372893e+04
<VARIANCE> 39
 6.303983e+07 2.046334e+09 1.643985e+10 2.761084e+10 1.986315e+10 2.590908e+10 1.707920e+10 1.993007e+10 3.617117e+10 2.971687e+10 8.959462e+09 2.171930e+09 9.374568e+10 6.368214e+06 2.664104e+08 3.047151e+09 3.879747e+09 4.386968e+09 4.285616e+09 3.302729e+09 4.624926e+09 4.170661e+09 1.033843e+09 1.401434e+08 7.330574e+06 1.771497e+10 1.095040e+06 6.413882e+07 6.931920e+08 6.291023e+08 6.655494e+08 7.134571e+08 5.704609e+08 7.852872e+08 8.695336e+08 2.924188e+08 4.026480e+07 7.550654e+05 2.841198e+09
<GCONST> 8.870554e+02
<MIXTURE> 75 5.186724e-03
<MEAN> 39
 -9.050084e+03 -4.008380e+04 -1.173410e+05 -2.175861e+05 -2.819639e+05 -3.911454e+05 -4.572080e+05 -5.502571e+05 -8.049916e+05 -7.542078e+05 -6.642549e+05 -3.130475e+05 -1.878406e+06 -1.320741e+02 -5.937563e+02 -1.566697e+03 -3.060925e+03 -3.127650e+03 -3.721737e+03 -4.503310e+03 -1.734018e+03 -2.118863e+03 1.207688e+03 2.065639e+03 8.881479e+02 -6.694273e+03 3.871006e+01 9.516016e+01 1.993988e+01 6.615907e+02 2.037062e+02 8.805330e+02 1.088959e+03 1.536833e+03 1.455175e+03 9.191066e+02 5.142330e+02 7.441327e+01 3.057111e+03
<VARIANCE> 39
 1.018473e+08 1.123306e+09 4.274606e+09 5.518175e+09 6.103831e+09 6.354286e+09 4.659212e+09 1.844779e+10 2.462683e+10 8.059280e+09 1.727916e+09 7.787742e+08 5.232649e+10 4.345372e+05 1.128504e+07 3.994188e+07 5.692988e+07 4.728300e+07 8.263825e+07 1.392848e+08 8.321394e+08 4.330333e+08 1.312064e+08 6.351095e+07 1.076504e+07 8.414011e+08 7.424664e+04 3.094733e+06 6.976776e+06 9.001894e+06 9.967955e+06 1.986755e+07 1.276725e+07 1.146624e+08 6.531523e+07 2.107117e+07 1.295544e+07 2.303498e+06 9.451478e+07
<GCONST> 8.028116e+02
<MIXTURE> 76 1.807217e-03
<MEAN> 39
 2.976577e+04 2.060647e+05 5.560001e+05 7.083995e+05 9.992430e+05 1.263796e+06 1.744477e+06 2.371634e+06 2.580223e+06 2.658720e+06 1.928514e+06 7.183886e+05 6.436126e+06 -1.305954e+03 -9.881752e+03 -1.767982e+04 -2.581333e+04 -4.504614e+04 -3.944388e+04 -5.984255e+04 -1.127868e+05 -1.444799e+05 -1.502869e+05 -1.472542e+05 -6.424554e+04 -3.339744e+05 -2.820463e+03 -1.768103e+04 -4.607365e+04 -5.723035e+04 -8.717019e+04 -1.200002e+05 -1.739381e+05 -2.377278e+05 -2.442050e+05 -2.552004e+05 -1.922213e+05 -7.508916e+04 -6.161927e+05
<VARIANCE> 39
 8.348523e+08 1.020089e+10 7.096667e+10 5.683295e+10 1.164896e+11 1.652301e+11 2.355279e+11 7.525135e+11 5.488013e+11 6.888784e+11 2.949339e+11 6.731629e+10 1.465978e+12 4.727040e+06 2.390340e+08 1.053353e+09 2.702403e+09 2.297313e+09 2.882322e+09 5.162972e+09 1.903585e+10 2.292400e+10 1.319576e+10 1.385077e+10 2.646811e+09 5.131457e+10 1.248879e+07 2.940336e+08 2.117265e+09 1.587782e+09 2.643029e+09 3.474329e+09 4.803442e+09 7.936914e+09 9.711081e+09 1.613095e+10 7.881901e+09 1.718207e+09 4.282384e+10
<GCONST> 9.691796e+02
<MIXTURE> 77 4.795838e-03
<MEAN> 39
 5.325813e+03 5.271324e+04 2.077147e+05 4.045286e+05 6.353059e+05 8.207211e+05 9.676309e+05 1.273364e+06 1.501108e+06 1.198073e+06 6.281114e+05 9.053069e+04 3.178265e+06 -3.811177e+02 -1.537749e+03 -1.497846e+03 -2.002833e+03 -4.214009e+03 -2.782270e+03 -1.505385e+04 -5.806472e+04 -1.185304e+05 -1.337560e+05 -9.723403e+04 -2.977061e+04 -1.897642e+05 2.766135e+01 -5.320430e+02 -2.381040e+03 -6.786084e+03 -1.663680e+04 -2.332107e+04 -3.304079e+04 -4.004903e+04 -3.060875e+04 -1.926809e+04 -4.677533e+03 6.647645e+02 -7.210023e+04
<VARIANCE> 39
 1.166340e+07 1.558574e+09 1.354806e+10 2.650215e+10 2.880681e+10 5.866307e+10 9.408514e+10 1.073692e+11 2.220178e+11 1.443994e+11 5.766046e+10 6.644894e+09 2.867615e+11 5.754353e+05 3.542598e+07 2.953965e+08 8.162233e+08 8.189334e+08 2.177262e+09 2.968654e+09 4.295663e+09 4.739990e+09 3.893296e+09 1.266689e+09 2.501323e+08 1.037762e+10 1.656993e+05 8.891141e+06 1.273668e+08 3.183913e+08 3.792689e+08 5.360697e+08 9.474091e+08 1.141511e+09 9.034936e+08 9.491996e+08 5.756117e+08 5.257546e+07 3.671706e+09
<GCONST> 8.949037e+02
<MIXTURE> 78 8.760017e-04
<MEAN> 39
 -1.645087e+03 -5.441889e+03 -8.865140e+03 -3.217563e+04 -5.533381e+04 -1.037702e+05 -1.255338e+05 -1.697940e+05 -2.149286e+05 -1.960910e+05 -1.749248e+05 -9.258041e+04 -4.821757e+05 9.045674e+02 1.305582e+03 2.885353e+03 9.921829e+03 1.590073e+04 1.874029e+04 2.139451e+04 2.976677e+04 4.076141e+04 5.368115e+04 5.328227e+04 4.383900e+04 1.193650e+05 5.360522e+03 2.605135e+04 7.525108e+04 1.188780e+05 1.741148e+05 1.955091e+05 2.253593e+05 3.402801e+05 4.982961e+05 5.480721e+05 5.918134e+05 4.099484e+05 1.310042e+06
<VARIANCE> 39
 2.428915e+07 8.652444e+08 1.683936e+10 2.287698e+10 3.479056e+10 4.732711e+10 4.723050e+10 8.515445e+10 1.685958e+11 1.532138e+11 9.891181e+10 1.822987e+10 8.608159e+11 2.956980e+06 2.364419e+07 1.076944e+08 1.983092e+08 4.287025e+08 8.111862e+08 1.148849e+09 2.486133e+09 3.306981e+09 3.258707e+09 5.833899e+09 3.988013e+09 1.985702e+10 1.628704e+07 1.621577e+08 1.328575e+09 4.069774e+09 5.389930e+09 4.264247e+09 6.393615e+09 2.495294e+10 6.241652e+10 9.694181e+10 1.780575e+11 1.040729e+11 4.035636e+11
<GCONST> 9.456816e+02
<MIXTURE> 79 2.759879e-03
<MEAN> 39
 1.139510e+03 1.184847e+04 6.931646e+04 1.862706e+05 2.543175e+05 2.955190e+05 3.938578e+05 4.958679e+05 7.600769e+05 1.024587e+06 6.800339e+05 2.397838e+05 1.801444e+06 8.546376e+01 1.540889e+03 1.463225e+04 4.607575e+04 5.922184e+04 8.666430e+04 1.160041e+05 1.184435e+05 1.646464e+05 2.155957e+05 1.099571e+05 4.252797e+04 3.982034e+05 1.301666e+02 8.558113e+02 8.366725e+02 -4.317641e+03 -8.462518e+03 -7.014432e+03 -1.547055e+04 -1.869137e+04 -3.420238e+04 -6.299612e+04 -3.775411e+04 -1.446071e+04 -8.228129e+04
<VARIANCE> 39
 2.327767e+06 7.558091e+07 1.262620e+09 8.730856e+09 1.246965e+10 1.810809e+10 3.418483e+10 5.360507e+10 1.221765e+11 1.704248e+11 8.365278e+10 2.292270e+10 4.180301e+11 1.288365e+05 5.037912e+06 1.158656e+08 6.756911e+08 1.004016e+09 1.903423e+09 3.024194e+09 3.433267e+09 1.553840e+10 4.688825e+10 1.692298e+10 3.275487e+09 5.938727e+10 9.481138e+04 1.514316e+06 3.105741e+07 2.065855e+08 2.089881e+08 2.184676e+08 8.271761e+08 1.237641e+09 3.295375e+09 6.822488e+09 2.396968e+09 7.571777e+08 1.235366e+10
<GCONST> 8.933477e+02
<MIXTURE> 80 3.643474e-03
<MEAN> 39
 4.643382e+03 8.427563e+04 2.839293e+05 4.411209e+05 5.327412e+05 6.128911e+05 7.574287e+05 9.206649e+05 8.898671e+05 7.095282e+05 3.921985e+05 2.540083e+04 2.308518e+06 -1.078991e+02 -1.223261e+03 1.276027e+04 6.119030e+03 5.549622e+03 1.194925e+04 7.441736e+03 -4.592464e+03 -8.999998e+03 -2.115921e+04 -2.984586e+04 -1.274372e+04 -1.422847e+04 4.284611e+02 4.243531e+03 1.527624e+04 2.175717e+04 3.394704e+04 3.883901e+04 5.050039e+04 6.331151e+04 5.730663e+04 5.415975e+04 3.826902e+04 1.196779e+04 1.592195e+05
<VARIANCE> 39
 1.128182e+07 2.897082e+09 2.235086e+10 3.714831e+10 4.414862e+10 5.341940e+10 8.000096e+10 7.397384e+10 5.921523e+10 9.292734e+10 7.620278e+10 1.094923e+10 1.891752e+11 7.942888e+05 1.027118e+08 1.066568e+09 2.054239e+09 3.757910e+09 2.555538e+09 4.476714e+09 7.372204e+09 3.505252e+09 7.444583e+09 4.060182e+09 2.876424e+08 1.782155e+10 2.831463e+05 2.304908e+07 3.046257e+08 4.355128e+08 4.791058e+08 5.660892e+08 8.820150e+08 1.649518e+09 1.786346e+09 1.600448e+09 8.743123e+08 1.321693e+08 4.189280e+09
<GCONST> 9.090815e+02
<MIXTURE> 81 2.652733e-03
<MEAN> 39
 9.914360e+04 2.043533e+05 2.505551e+05 3.005940e+05 3.920456e+05 5.020329e+05 6.001242e+05 8.613002e+05 1.005664e+06 7.947153e+05 3.994755e+05 1.190818e+04 2.213486e+06 -5.955609e+03 -1.134170e+04 -1.593155e+04 -1.491772e+04 -1.332660e+04 -2.037223e+04 -2.523234e+04 -5.254644e+04 -1.150071e+05 -1.186527e+05 -8.483160e+04 -1.921246e+04 -2.030333e+05 -2.872539e+03 -4.540190e+03 -4.330789e+03 -2.618179e+03 -1.357713e+03 -1.051751e+03 -4.376104e+03 -2.031733e+03 8.319521e+03 1.004964e+04 9.191685e+03 3.953573e+03 3.402916e+03
<VARIANCE> 39
 5.020062e+09 1.222540e+10 1.515378e+10 1.471453e+10 1.523853e+10 1.705488e+10 1.959871e+10 4.712364e+10 1.407101e+11 1.920087e+11 1.290796e+11 2.032110e+10 2.725030e+11 1.685180e+08 7.260794e+08 8.872858e+08 1.083964e+09 1.550305e+09 3.295122e+09 3.181248e+09 6.511981e+09 1.814138e+10 7.201829e+09 2.894610e+09 2.290744e+08 3.556687e+10 5.611329e+07 1.376776e+08 2.161172e+08 2.333952e+08 1.811036e+08 4.811295e+08 5.428257e+08 9.856895e+08 3.085874e+09 7.866956e+08 2.292727e+08 2.800494e+07 4.556666e+09
<GCONST> 9.224758e+02
<MIXTURE> 82 1.700666e-03
<MEAN> 39
 8.672508e+03 1.207894e+05 3.921420e+05 7.506254e+05 1.082375e+06 1.343172e+06 1.906938e+06 2.694742e+06 2.564222e+06 1.952650e+06 1.344758e+06 4.046528e+05 5.946438e+06 1.121057e+03 1.228068e+04 5.630022e+04 1.358770e+05 1.486792e+05 1.632538e+05 2.097810e+05 2.361097e+05 1.418535e+05 8.816289e+04 6.551552e+04 7.262199e+03 5.169227e+05 -2.414064e+02 -4.617735e+03 -1.478817e+04 -3.445661e+04 -6.104088e+04 -8.131182e+04 -1.248673e+05 -1.900090e+05 -1.666868e+05 -1.232298e+05 -9.310167e+04 -3.578300e+04 -3.797257e+05
<VARIANCE> 39
 5.198829e+07 2.502167e+09 1.518875e+10 6.993234e+10 1.309757e+11 1.517864e+11 2.457227e+11 5.389222e+11 3.329558e+11 3.235145e+11 2.732875e+11 6.602885e+10 1.389404e+12 5.815978e+06 5.093435e+08 2.322265e+09 4.376361e+09 4.656174e+09 5.215462e+09 1.176201e+10 1.582890e+10 2.385444e+10 1.396297e+10 8.428640e+09 1.119238e+09 4.309508e+10 1.448344e+06 9.639278e+07 3.600098e+08 9.710146e+08 1.473515e+09 2.527159e+09 3.314575e+09 5.702615e+09 6.020362e+09 6.557197e+09 4.375332e+09 7.939099e+08 2.072290e+10
<GCONST> 9.541369e+02
<MIXTURE> 83 3.775881e-03
<MEAN> 39
 -1.207436e+03 -8.353289e+03 -2.638554e+04 -4.000890e+04 -5.330750e+04 -6.248777e+04 -6.937653e+04 -8.326508e+04 -1.007303e+05 -9.635920e+04 -7.624245e+04 -3.501657e+04 -2.664802e+05 -1.743686e+01 -1.378963e+01 3.803117e+01 -3.393959e+01 -9.019650e+01 -3.142734e+01 -2.546474e+01 8.264725e+01 3.156070e+01 2.498568e+02 5.834470e+02 8.563257e+01 3.506532e+02 5.023796e+03 2.342252e+04 6.030725e+04 5.882695e+04 7.855517e+04 9.538434e+04 1.206266e+05 1.660103e+05 2.322087e+05 2.697803e+05 2.920973e+05 2.358275e+05 6.687396e+05
<VARIANCE> 39
 6.748244e+05 2.477502e+07 2.409720e+08 6.580778e+08 1.266772e+09 1.812436e+09 2.084163e+09 2.882011e+09 4.242714e+09 4.214450e+09 3.400932e+09 8.939592e+08 2.614150e+10 2.284151e+04 1.311892e+05 1.455990e+05 6.737109e+05 6.075516e+05 5.421672e+05 6.352731e+05 7.397961e+05 1.595084e+06 4.877521e+06 1.091229e+07 1.993322e+06 1.154958e+07 1.464016e+07 1.864846e+08 8.517608e+08 5.800509e+08 1.398972e+09 1.592164e+09 1.851230e+09 3.737614e+09 7.324554e+09 1.170039e+10 1.494611e+10 2.318842e+10 2.747083e+10
<GCONST> 7.944454e+02
<MIXTURE> 84 1.404154e-03
<MEAN> 39
 1.458579e+04 1.156514e+05 3.345709e+05 5.265666e+05 6.616284e+05 7.293622e+05 7.198051e+05 9.022366e+05 1.110050e+06 1.201165e+06 9.034349e+05 4.162260e+05 3.117091e+06 5.593074e+03 2.880475e+04 9.157334e+04 1.635393e+05 2.278236e+05 2.967814e+05 3.713132e+05 5.327558e+05 7.063804e+05 7.453277e+05 6.067339e+05 2.753558e+05 1.654215e+06 -2.313078e+03 -1.321338e+04 -3.815270e+04 -6.466895e+04 -8.413420e+04 -9.051825e+04 -7.895439e+04 -8.730102e+04 -1.094820e+05 -1.401341e+05 -1.202030e+05 -7.156198e+04 -3.676835e+05
<VARIANCE> 39
 1.023232e+08 6.099807e+09 3.309505e+10 6.016745e+10 9.033522e+10 1.478202e+11 1.006882e+11 1.702669e+11 2.405577e+11 2.678861e+11 1.561187e+11 9.269706e+10 8.295076e+11 2.117454e+07 5.853468e+08 4.383479e+09 1.189904e+10 2.534543e+10 3.061625e+10 3.502065e+10 6.256076e+10 1.084635e+11 1.015378e+11 8.498766e+10 1.899555e+10 3.075374e+11 4.581194e+06 1.415088e+08 1.502795e+09 3.549809e+09 5.501157e+09 8.794337e+09 1.008210e+10 1.203483e+10 2.059924e+10 1.858080e+10 1.054749e+10 7.172253e+09 9.931216e+10
<GCONST> 9.878475e+02
<MIXTURE> 85 5.946887e-03
<MEAN> 39
 1.010384e+04 9.945059e+04 3.083222e+05 5.224848e+05 6.625736e+05 8.531059e+05 1.026075e+06 1.375226e+06 1.577883e+06 1.241644e+06 6.720944e+05 9.998203e+04 3.449268e+06 -1.373594e+03 -1.004771e+04 -2.270748e+04 -4.412618e+04 -5.819036e+04 -7.538536e+04 -1.206024e+05 -1.867002e+05 -2.126219e+05 -2.131041e+05 -1.655999e+05 -5.276788e+04 -4.748855e+05 5.017603e+02 2.030733e+03 9.414782e+03 1.905353e+04 2.711159e+04 2.714500e+04 3.773107e+04 6.074327e+04 6.810709e+04 7.485401e+04 5.543693e+04 2.084483e+04 1.645137e+05
<VARIANCE> 39
 9.695759e+07 2.670267e+09 1.897472e+10 3.255214e+10 3.342866e+10 5.089896e+10 7.122612e+10 1.382610e+11 5.407044e+11 4.710655e+11 1.726257e+11 1.200467e+10 7.449487e+11 3.955664e+06 2.701174e+08 1.450267e+09 3.134868e+09 4.414690e+09 4.356445e+09 6.045130e+09 8.655077e+09 9.528859e+09 1.225648e+10 7.687203e+09 6.449292e+08 2.323109e+10 1.028954e+06 2.982491e+07 2.650009e+08 6.067176e+08 5.323030e+08 8.787668e+08 1.124137e+09 2.183824e+09 1.655212e+09 1.672247e+09 5.967488e+08 1.032363e+08 4.761343e+09
<GCONST> 9.270953e+02
<MIXTURE> 86 2.257075e-03
<MEAN> 39
 5.428594e+03 1.076870e+05 3.933691e+05 5.155551e+05 6.767935e+05 8.707188e+05 1.223812e+06 1.827124e+06 2.210297e+06 1.711529e+06 1.085715e+06 3.356831e+05 4.475916e+06 -7.012107e+02 7.912660e+02 2.577320e+04 2.781946e+04 9.465483e+04 1.124640e+05 1.817355e+05 1.776180e+05 4.014714e+04 1.070751e+03 -1.599678e+04 -1.380513e+04 2.578378e+05 1.591066e+03 1.121656e+04 2.321289e+04 3.662837e+04 3.842599e+04 1.599380e+04 -7.599383e+03 -2.674524e+04 -2.277872e+04 2.536110e+04 2.136945e+04 1.011557e+04 5.176241e+04
<VARIANCE> 39
 1.098209e+07 1.548714e+09 1.406483e+10 1.144035e+10 2.216279e+10 3.704559e+10 6.760584e+10 2.347916e+11 2.457196e+11 5.642022e+10 3.920158e+10 7.308917e+09 4.127134e+11 5.364702e+06 6.402941e+08 4.287059e+09 5.503336e+09 3.631033e+09 2.214875e+09 7.039099e+09 1.349478e+10 9.755995e+09 8.406176e+09 3.585098e+09 3.250921e+08 2.309776e+10 7.214307e+05 4.872574e+07 2.692822e+08 3.377443e+08 7.873346e+08 2.480254e+09 5.399601e+09 7.606401e+09 6.445267e+09 3.105552e+09 1.816993e+09 9.234754e+08 2.461653e+10
<GCONST> 9.287663e+02
<MIXTURE> 87 3.093939e-03
<MEAN> 39
 2.580181e+04 2.645077e+05 9.719709e+05 1.395613e+06 1.680771e+06 2.041717e+06 2.815635e+06 4.285376e+06 4.870434e+06 3.978020e+06 2.944655e+06 1.334643e+06 1.086314e+07 -9.511611e+02 -7.477783e+03 -2.113746e+04 -3.930919e+04 -7.371179e+04 -1.657299e+05 -2.415733e+05 -4.747880e+05 -6.748616e+05 -5.736791e+05 -4.628843e+05 -2.376154e+05 -1.214016e+06 -2.164508e+03 -2.221241e+04 -8.696597e+04 -1.317853e+05 -1.700134e+05 -2.252013e+05 -2.949311e+05 -3.977257e+05 -3.604444e+05 -2.637275e+05 -1.805443e+05 -7.895318e+04 -9.041349e+05
<VARIANCE> 39
 4.756244e+08 2.371352e+10 1.657445e+11 3.411322e+11 2.581192e+11 2.647332e+11 5.595393e+11 1.223459e+12 2.053417e+12 1.456252e+12 1.302546e+12 8.331066e+11 5.951233e+12 4.104110e+06 6.254078e+08 4.260800e+09 4.042145e+09 6.073340e+09 7.773715e+09 1.719778e+10 5.361485e+10 5.390760e+10 4.149404e+10 1.877542e+10 8.998628e+09 1.158212e+11 8.784377e+06 3.562111e+08 2.522075e+09 5.241256e+09 4.244361e+09 4.867035e+09 8.948603e+09 2.123340e+10 3.148552e+10 2.153413e+10 2.346723e+10 1.276597e+10 7.893215e+10
<GCONST> 1.002155e+03
<MIXTURE> 88 3.362426e-03
<MEAN> 39
 -1.469597e+03 -1.178026e+04 -3.353237e+04 -4.380569e+04 -4.797495e+04 -4.957616e+04 -5.887302e+04 -8.267378e+04 -1.023041e+05 -8.854942e+04 -7.431656e+04 -4.520569e+04 -2.613041e+05 1.635704e+04 7.956638e+04 1.851556e+05 1.270679e+05 1.458570e+05 2.017627e+05 3.388531e+05 5.590165e+05 8.886814e+05 1.011030e+06 1.272653e+06 1.353228e+06 2.522660e+06 1.590367e+04 6.008072e+04 1.302336e+05 1.164053e+05 1.374184e+05 1.759320e+05 2.843380e+05 5.464618e+05 9.270310e+05 8.941420e+05 9.912088e+05 8.934479e+05 2.111706e+06
<VARIANCE> 39
 5.769148e+05 3.752552e+07 3.930032e+08 8.585567e+08 9.972886e+08 1.098512e+09 1.547493e+09 2.626535e+09 3.425884e+09 2.649357e+09 2.024681e+09 6.707201e+08 2.458576e+10 7.888509e+07 1.865864e+09 6.161923e+09 3.451050e+09 6.143587e+09 8.541753e+09 2.427330e+10 6.123509e+10 1.891473e+11 2.236593e+11 3.610193e+11 4.410619e+11 1.190952e+12 2.900413e+07 1.706124e+08 5.327714e+08 1.213904e+09 2.015719e+09 1.644368e+09 3.756844e+09 1.112860e+10 3.249231e+10 2.010144e+10 4.060073e+10 4.200948e+10 7.869521e+10
<GCONST> 9.348599e+02
<MIXTURE> 89 8.322023e-04
<MEAN> 39
 -5.203352e+03 -2.221071e+04 -5.203902e+04 -7.154530e+04 -8.885775e+04 -1.049615e+05 -1.189835e+05 -1.600390e+05 -2.013562e+05 -1.782457e+05 -1.541909e+05 -9.402598e+04 -5.109876e+05 9.738508e+03 2.108198e+04 3.795270e+04 3.780024e+04 5.323096e+04 7.897448e+04 1.306313e+05 2.048879e+05 3.210438e+05 3.205285e+05 4.201884e+05 4.400168e+05 8.475543e+05 3.360421e+04 7.159302e+04 1.691527e+05 1.816733e+05 2.549171e+05 3.350618e+05 4.721574e+05 8.520079e+05 1.382953e+06 1.509633e+06 1.653903e+06 1.509856e+06 3.440109e+06
<VARIANCE> 39
 4.484542e+07 4.628531e+08 2.516502e+09 5.091280e+09 8.217294e+09 9.120119e+09 1.076666e+10 1.902472e+10 3.436211e+10 2.888347e+10 2.558699e+10 7.095828e+09 1.854362e+11 1.088729e+08 1.468751e+08 7.360200e+08 3.768713e+08 6.833740e+08 1.187172e+09 2.966312e+09 5.276572e+09 1.723576e+10 1.891549e+10 3.119201e+10 2.639773e+10 6.544214e+10 7.633444e+08 4.014212e+08 7.503490e+09 6.484688e+09 1.216186e+10 2.198157e+10 5.061197e+10 1.144450e+11 3.192839e+11 4.984188e+11 6.486127e+11 7.457539e+11 2.175038e+12
<GCONST> 9.690350e+02
<MIXTURE> 90 2.165657e-03
<MEAN> 39
 4.236842e+04 2.845499e+05 8.568155e+05 1.269543e+06 1.818456e+06 2.197719e+06 2.424315e+06 2.957178e+06 3.966364e+06 4.212966e+06 3.365118e+06 2.082829e+06 1.040144e+07 5.168286e+03 3.052734e+04 9.033743e+04 1.294276e+05 1.747075e+05 2.020773e+05 2.469151e+05 2.806155e+05 3.124880e+05 3.345105e+05 2.526317e+05 1.274442e+05 8.927779e+05 -5.602256e+03 -3.511312e+04 -1.010691e+05 -1.500005e+05 -2.114165e+05 -2.543914e+05 -2.786873e+05 -3.324925e+05 -4.266436e+05 -4.424362e+05 -3.465211e+05 -2.389300e+05 -1.152609e+06
<VARIANCE> 39
 3.017147e+08 1.484454e+10 1.252653e+11 3.111095e+11 7.831568e+11 6.560077e+11 6.163764e+11 1.637646e+12 2.428248e+12 1.640925e+12 1.255879e+12 9.573344e+11 7.106046e+12 7.449498e+06 2.062121e+08 1.293624e+09 5.943825e+09 8.438057e+09 5.365442e+09 6.693498e+09 1.471709e+10 6.780640e+10 9.057095e+10 7.592849e+10 2.699754e+10 1.535231e+11 6.090482e+06 3.218889e+08 2.345321e+09 4.300620e+09 8.769952e+09 4.534330e+09 6.512930e+09 1.777664e+10 1.753372e+10 1.352787e+10 2.044860e+10 1.812799e+10 4.991967e+10
<GCONST> 1.002148e+03
<MIXTURE> 91 2.973126e-03
<MEAN> 39
 9.497124e+03 1.288347e+05 4.760695e+05 9.797874e+05 1.285569e+06 1.668925e+06 2.010196e+06 2.429728e+06 2.472076e+06 2.116837e+06 1.219038e+06 3.266521e+05 6.174024e+06 -1.354776e+03 -1.157549e+04 -2.737160e+04 -6.557355e+04 -1.194636e+05 -1.431374e+05 -2.313521e+05 -3.489835e+05 -4.521165e+05 -4.610192e+05 -3.143018e+05 -1.298819e+05 -9.414742e+05 -1.438937e+02 -1.236485e+03 -6.083494e+03 -1.848840e+04 -1.109235e+04 -2.672454e+04 -2.949295e+04 -1.590949e+04 1.258048e+04 1.699151e+04 2.244090e+04 2.327095e+04 -1.383460e+04
<VARIANCE> 39
